<?xml version="1.0"?>
<opencv_storage>
<opencv_ml_ann_mlp>
  <format>3</format>
  <layer_sizes>
    128 128 128 128 10</layer_sizes>
  <activation_function>SIGMOID_SYM</activation_function>
  <f_param1>6.6666666666666663e-01</f_param1>
  <f_param2>1.7159000000000000e+00</f_param2>
  <min_val>-9.4999999999999996e-01</min_val>
  <max_val>9.4999999999999996e-01</max_val>
  <min_val1>-9.7999999999999998e-01</min_val1>
  <max_val1>9.7999999999999998e-01</max_val1>
  <training_params>
    <train_method>BACKPROP</train_method>
    <dw_scale>1.0000000000000000e-03</dw_scale>
    <moment_scale>1.0000000000000001e-01</moment_scale>
    <term_criteria>
      <epsilon>1.0000000000000000e-04</epsilon>
      <iterations>10000</iterations></term_criteria></training_params>
  <input_scale>
    1.1043561765559854e-02 -4.1678402103222889e-01
    8.3529188307720215e-03 -6.9863813100577188e-01
    7.9353420127227462e-03 -1.1655430348287170e+00
    9.3185971867011247e-03 -1.8297065576087659e+00
    1.2739081836049914e-02 -2.9041284861642991e+00
    8.2784378611911597e-03 -1.3932610920384723e+00
    8.6076342277731383e-03 -6.4531433805615213e-01
    2.0510700131577877e-02 -1.9874868427498962e-01
    1.0922953868176138e-02 -4.2337369193050706e-01
    7.9304726885938270e-03 -1.1607832874294786e+00
    8.4943746923571133e-03 -1.4989173582133364e+00
    1.0696955403725112e-02 -2.2912878474779186e+00
    2.0012171101169787e-02 -4.8989794855663638e+00
    1.1440196764934721e-02 -2.5205041512504178e+00
    7.8507404533917340e-03 -9.5692675386391846e-01
    1.4798477544174059e-02 -2.8679449480609326e-01
    1.3189961046162777e-02 -3.2961712654360775e-01
    7.8462135736995613e-03 -1.0284032131048015e+00
    7.8453970547117616e-03 -1.0242950394631676e+00
    7.8431372549019607e-03 -1. 8.1901505865137041e-03
    -1.3449865293172805e+00 8.9404069134814326e-03
    -1.6870547845739463e+00 7.9211486592821248e-03
    -1.1513389576266568e+00 1.3568223275910726e-02
    -3.1831051805286564e-01 1.1898629013551053e-02
    -3.7623464940848433e-01 7.8453970547117616e-03
    -9.7628120948833164e-01 8.0792710140228340e-03
    -7.8288136125881269e-01 8.6076342277731383e-03
    -6.4531433805615213e-01 8.0255609358551964e-03
    -8.0632810722537163e-01 8.0048684404679018e-03
    -1.2247448713915889e+00 7.8736834093533770e-03
    -1.0922373625455004e+00 1.2155827355819221e-02
    -3.6576884513660035e-01 1.2533387688246923e-02
    -3.5156152465532620e-01 7.9855269607659336e-03
    -8.2674160624809712e-01 8.4350609954194009e-03
    -6.7969721501089531e-01 8.0960578411158196e-03
    -7.7625002580618474e-01 8.2218418566424971e-03
    -7.3379938570534287e-01 7.8447063530980941e-03
    -9.8019605881960692e-01 7.8441413692646594e-03
    -1.0161300729745439e+00 1.1817315504468616e-02
    -3.7969034715857669e-01 1.4798477544174059e-02
    -2.8679449480609326e-01 7.8892825046985669e-03
    -8.9724809925936799e-01 7.8554642949045256e-03
    -9.4548368253470871e-01 7.9675087393357748e-03
    -8.3706646815461649e-01 7.9403505285065082e-03
    -8.5446112037258537e-01 7.8507404533917340e-03
    -1.0450120617509737e+00 7.8537627297958369e-03
    -9.4928430115042284e-01 1.2434958074309830e-02
    -3.5514240260228874e-01 2.2281639928698752e-02
    -1.8181818181818182e-01 7.8635460504317654e-03
    -9.3041476868708639e-01 7.9733694055122029e-03
    -1.1995934270593109e+00 7.9041396825023282e-03
    -1.1327422578994086e+00 8.0711217877203253e-03
    -1.2719280825268462e+00 8.8964952039292614e-03
    -1.6696942198734439e+00 7.8635460504317654e-03
    -9.3041476868708639e-01 1.4455093740676191e-02
    -2.9488391230979427e-01 2.9496319111537529e-02
    -1.3538810472195725e-01 7.9211486592821265e-03
    -8.6855395049028516e-01 7.8892825046985686e-03
    -1.1145189394387669e+00 8.2903425328704778e-03
    -1.3994927229738654e+00 1.0539566544403895e-02
    -2.2414496169983762e+00 1.0207435417555951e-02
    -2.1343747458109492e+00 7.8635460504317672e-03
    -1.0747894741730140e+00 1.5171187759563061e-02
    -2.7854300726557779e-01 2.6734930026805628e-02
    -1.4998295745037957e-01 8.3794201441260274e-03
    -6.9230769230769240e-01 7.8462135736995613e-03
    -9.7238124818858673e-01 7.8447063530980941e-03
    -1.0202040612204073e+00 8.1600946259041945e-03
    -1.3275657946883535e+00 9.6280120811811018e-03
    -1.9395630337539329e+00 8.1224806013228765e-03
    -1.3048765086025202e+00 1.3189961046162777e-02
    -3.2961712654360775e-01 2.2281639928698752e-02
    -1.8181818181818182e-01 8.0185115165345832e-03
    -8.0970929293966221e-01 8.1409417618935540e-03
    -7.5979409463752534e-01 8.8331683450913190e-03
    -6.0816364055953731e-01 7.9733694055122029e-03
    -8.3361577134630083e-01 8.0327637909860562e-03
    -1.2453996981544782e+00 8.1409417618935540e-03
    -1.3161460546453307e+00 1.0344158626130818e-02
    -4.5897031824142437e-01 1.7350714810519571e-02
    -2.3891934294085448e-01 7.9793751641300485e-03
    -8.3017419207609033e-01 8.1699346405228763e-03
    -7.5000000000000000e-01 9.2086052314096691e-03
    -5.5887025149425285e-01 8.0255609358551964e-03
    -8.0632810722537163e-01 7.8736834093533770e-03
    -9.1555190683961063e-01 8.0711217877203253e-03
    -1.2719280825268462e+00 9.2086052314096691e-03
    -5.5887025149425285e-01 1.6261573095490849e-02
    -2.5709547063971033e-01 7.8736834093533770e-03
    -1.0922373625455004e+00 7.9403505285065082e-03
    -8.5446112037258537e-01 8.4791911777335402e-03
    -6.7028006259983630e-01 7.9982725852539432e-03
    -8.1990292271438181e-01 7.9675087393357748e-03
    -8.3706646815461649e-01 8.0327637909860562e-03
    -1.2453996981544782e+00 8.9182777324241912e-03
    -5.9583013530326023e-01 1.7056102956843653e-02
    -2.4356115022372735e-01 8.1799526963899222e-03
    -1.3391400559259943e+00 8.0792710140228340e-03
    -1.2773327473170100e+00 8.0327637909860562e-03
    -8.0295506854696608e-01 7.9562190338381793e-03
    -8.4399571510955407e-01 7.8554642949045256e-03
    -9.4548368253470871e-01 7.9562190338381793e-03
    -1.1848401385191816e+00 8.7340275134779218e-03
    -6.2360956446232363e-01 3.6015605802482600e-02
    -1.1020775375559676e-01 8.0711217877203253e-03
    -1.2719280825268462e+00 8.2903425328704778e-03
    -1.3994927229738654e+00 8.2439034346378729e-03
    -1.3748357757945582e+00 7.9123727615645501e-03
    -1.1419927606766116e+00 8.2005301477719710e-03
    -1.3508733312424768e+00 7.9353420127227462e-03
    -1.1655430348287170e+00 1.0807526200907457e-02
    -4.2992339227209864e-01 3.9413247657224003e-02
    -1.0050378152592120e-01 9.0325162225944784e-03
    -5.8042949246392128e-01 8.2784378611911597e-03
    -1.3932610920384723e+00 9.6619672547235708e-03
    -1.9513309067639724e+00 1.1043561765559852e-02
    -2.3993242291855332e+00 9.0808198260364272e-03
    -1.7413380098407452e+00 7.8658868340444211e-03
    -1.0791210147625541e+00 1.2957510378066138e-02
    -3.3702484493350027e-01 4.4020907359503647e-02
    -8.9802651013387441e-02 1.2434958074309830e-02
    -3.5514240260228874e-01 8.2110932619216676e-03
    -7.3702773119008891e-01 8.6248542551829385e-03
    -1.5571311872307276e+00 9.0325162225944802e-03
    -1.7228621442976713e+00 7.9617922464749798e-03
    -1.1897306153907563e+00 9.4059994663399041e-03
    -5.3727068951733525e-01 1.7056102956843653e-02
    -2.4356115022372735e-01</input_scale>
  <output_scale>
    5.2631578947368418e-01 4.9999999999999994e-01 5.2631578947368418e-01
    4.9999999999999994e-01 5.2631578947368418e-01 4.9999999999999994e-01
    5.2631578947368418e-01 4.9999999999999994e-01 5.2631578947368418e-01
    4.9999999999999994e-01 5.2631578947368418e-01 4.9999999999999994e-01
    5.2631578947368418e-01 4.9999999999999994e-01 5.2631578947368418e-01
    4.9999999999999994e-01 5.2631578947368418e-01 4.9999999999999994e-01
    5.2631578947368418e-01 4.9999999999999994e-01</output_scale>
  <inv_output_scale>
    1.8999999999999999e+00 -9.4999999999999996e-01
    1.8999999999999999e+00 -9.4999999999999996e-01
    1.8999999999999999e+00 -9.4999999999999996e-01
    1.8999999999999999e+00 -9.4999999999999996e-01
    1.8999999999999999e+00 -9.4999999999999996e-01
    1.8999999999999999e+00 -9.4999999999999996e-01
    1.8999999999999999e+00 -9.4999999999999996e-01
    1.8999999999999999e+00 -9.4999999999999996e-01
    1.8999999999999999e+00 -9.4999999999999996e-01
    1.8999999999999999e+00 -9.4999999999999996e-01</inv_output_scale>
  <weights>
    <_>
      -3.1108889576642249e-02 3.2014765878431058e-02
      1.4024550912684501e-04 9.2109440789036167e-03
      -2.5198671637824341e-02 -1.7469501094055866e-02
      9.9345337847973510e-03 1.7702654965094773e-02
      -3.8417064197791527e-03 -8.0821534808085986e-04
      -3.4289639133734694e-02 -1.2986273883390969e-02
      -9.7626192023650745e-03 -2.0618231684106481e-02
      2.4463111046093736e-02 -2.1627574618863971e-03
      3.3800791975628001e-03 2.3921414692964143e-02
      -4.3675755959057486e-03 1.7966805070954876e-02
      -1.4158795000737280e-02 8.4299870899990515e-03
      1.9107759440175318e-02 1.9127968911501403e-03
      7.2230710751366063e-03 1.7793516066925689e-02
      2.0637355416857052e-02 1.0145412416044266e-02
      -1.9665834246308024e-03 -3.4810800962052982e-03
      -8.0382931767380931e-03 1.5822909851478512e-02
      5.1685017961529255e-03 2.2273224426408427e-02
      4.8251583895646622e-03 -1.3350077123873505e-02
      8.3545895472422684e-04 1.8420468882034087e-02
      -1.0994018844471936e-02 3.5560382384574885e-04
      3.4857323460681044e-02 9.4603407826545048e-03
      -1.1835367433002361e-02 -1.3619783232546763e-02
      3.7323677416669374e-03 1.1866773419242018e-02
      8.3474370561187946e-03 -1.3656662954693316e-02
      -2.7040378404336117e-02 3.9397622380480182e-03
      2.7366626890773932e-03 3.6832579311401755e-03
      -1.0966199183878934e-03 1.1653631233307581e-02
      9.3175721005643447e-03 3.2154973517295224e-02
      5.4069289424064299e-03 -1.4890621359081011e-04
      -3.4840734684472796e-02 -4.6730682321138636e-03
      6.2919772388640655e-03 -2.9573486797411931e-02
      1.3549091589039855e-03 -5.4447265927270484e-03
      2.9946107652688004e-02 -1.8168348524497797e-02
      -1.2738039512699768e-02 -1.9034497497486865e-02
      -9.6287013801533341e-03 -1.2614917134648332e-03
      -2.2782785723996349e-02 -2.9162320395415425e-02
      1.5812150675087123e-03 2.1314825261197521e-02
      9.2077802477938536e-03 7.2099983692091294e-04
      -2.2539392791816531e-02 1.8660064406412904e-02
      7.9416004929306165e-03 2.9475837378709860e-02
      2.7534008184148223e-02 7.1820325176370015e-03
      1.5397631440738396e-02 5.9672181127738352e-03
      8.9907887212388928e-03 -3.7927631761927517e-02
      2.5521346630200479e-02 6.8040495392642105e-04
      2.2173990009527487e-02 1.2700041018821439e-03
      -2.2667503209088218e-02 -2.0989439162770147e-02
      -1.3293002196185273e-02 1.4443938529143288e-04
      -2.2060190989508500e-02 2.9379397186973747e-02
      -3.1910395167047407e-03 -4.2029730072943833e-02
      -1.9150083979105840e-02 -4.2404984889171951e-02
      1.5092985618928677e-02 8.6903464947125433e-03
      1.7250512313036582e-02 2.1333850368982374e-02
      2.2033198092937467e-02 2.6848332380056835e-03
      -3.1643618069758850e-02 -2.0774020407657169e-02
      4.5518442889183495e-03 -2.2021366001682245e-03
      -1.9615195205621695e-02 -3.2788258746288372e-02
      2.6852171294507376e-03 2.5573267609026278e-03
      -2.4301240334056645e-02 -7.5858820987541346e-03
      1.5773915403818853e-02 -7.9816274320125896e-05
      -1.0512925060569039e-02 2.0525477699587552e-03
      2.6891639854640034e-02 1.1867376458410394e-02
      1.3666173839814489e-02 -9.9175945860399961e-03
      -1.9321350883656968e-02 1.8101991253788956e-03
      -3.6551010543213907e-03 -1.0621844940620470e-02
      -1.3588297740126288e-02 6.4447808233190837e-02
      4.0503931763390726e-02 4.1741739167511831e-02
      -1.3719653357559813e-02 2.5349188842385502e-03
      5.6091733702078379e-02 4.1299319219212094e-02
      1.4810805250110278e-02 1.0060596645499863e-02
      -2.7880981592364580e-02 -2.5300701925232909e-02
      -7.2670072054088902e-03 -7.1668303011033829e-02
      -2.8064143023620310e-02 3.0535824095040440e-02
      -5.0940882978891761e-03 1.9221252720928766e-02
      -4.4368687306625493e-02 7.6041135477770642e-03
      -3.6473483333277885e-03 2.8724127459927129e-03
      -3.5734000242009470e-02 5.2021113763075352e-03
      2.1624649569188015e-02 8.8282587001842494e-03
      2.2279942334619919e-02 1.3189381664718806e-02
      8.7545202536003352e-03 7.4876410923117595e-03
      -6.1965152765203141e-03 3.9069455825419756e-02
      6.8658240910220540e-03 -3.5505371926048933e-02
      1.5628888890288992e-02 -1.4041497481496653e-02
      3.5549870522868350e-02 4.6634832131964808e-03
      2.6305822936744914e-02 -2.1292490342941797e-02
      2.7578744137299088e-02 5.8729920584751308e-02
      1.4000770357002278e-02 -7.9199319481567804e-02
      1.1296991425938632e-03 2.1211761937221723e-02
      5.0056581643696502e-02 -7.0936395795625731e-02
      -5.3122315397694186e-02 1.3172780491397505e-03
      1.0320122273736031e-02 1.4790936374188251e-02
      5.7837878611863838e-03 5.3103667017231010e-03
      4.2391747056630034e-02 8.6403768432144368e-02
      3.8981735878043884e-02 2.6738649146631415e-02
      -3.2729460897758092e-02 3.0215949068828827e-02
      -7.1887774997131115e-02 1.2409923422185096e-02
      -6.3063218024733789e-02 -2.2279620136565880e-02
      -1.4939496212108910e-02 -3.7277929529104994e-03
      3.3007694663174235e-02 -4.0630270169191532e-02
      4.1349609990893606e-02 -4.1626203657366682e-02
      -5.7225020297965723e-02 -3.7929209337807933e-02
      -4.6087730425152365e-02 4.2117172618659104e-02
      -1.4587517939881365e-02 1.3738802240468870e-02
      -1.4510506821910546e-02 -1.7480142482570727e-02
      -1.1027330092477208e-02 4.2342065962137999e-02
      3.5878183975562285e-02 4.7777919217219571e-02
      3.3244525197987394e-02 -8.6366663334304199e-04
      -1.0710646135200933e-02 -5.6105141826905187e-02
      5.3889346573331658e-02 6.5373815922661574e-02
      6.3132136450688048e-02 1.9409269684970518e-02
      1.7734624731367739e-03 -2.9827306880096400e-02
      -4.9644546028331437e-03 -1.7961608172371572e-02
      -3.6135623899170972e-02 1.0529955044455919e-02
      1.1480560701966744e-02 -6.6870673033929198e-02
      -6.5769087469144403e-03 -1.0735086747275789e-01
      8.1721202806593219e-03 2.5114247156200999e-02
      -4.5608840993277340e-02 5.3513438936330177e-02
      1.7182851401479154e-02 -1.9513995621644801e-02
      -5.3654495079304587e-02 -7.9267381828101967e-03
      4.9996631370706056e-02 -1.9286316174479876e-02
      -2.7774652440095953e-02 -6.6205905512868174e-02
      2.3346913630741012e-02 -1.6667961502449993e-02
      -2.1607572301858117e-02 1.2397311180744127e-03
      2.8591161384939719e-02 -1.2455663290432429e-02
      -1.2718594064518529e-02 -3.6055812079894049e-02
      5.8673825159311244e-02 3.3022938760871872e-03
      3.0022729401669068e-02 -4.0296199094475085e-02
      -1.5097089053216332e-02 4.2327508411988896e-03
      -1.4636949608384469e-02 -3.2900156400257057e-02
      -2.1250791376747246e-02 2.4118365354109158e-02
      2.8150305380173192e-02 1.2931735877286875e-02
      2.2627624703714226e-05 -4.0598931220076670e-02
      2.5237940641923483e-02 1.4001398596488433e-02
      -6.1563002507319822e-04 -7.0191402993172109e-03
      2.8289440163615200e-02 1.2376728940766829e-02
      1.8717465272295431e-03 1.2343754173813176e-02
      2.2979145612521481e-02 1.3623736052632692e-02
      1.5920947930607823e-03 7.0346721293782534e-03
      -2.8948014095765116e-02 2.1048040066884127e-02
      -1.6773207103283616e-02 -2.2609667550335260e-02
      6.9195359109791507e-03 -1.8176903853552719e-02
      1.1734451167500319e-03 -1.6413613772197268e-03
      -8.2628040414462547e-03 2.9658582516160131e-02
      8.4328387036409838e-03 -1.1538451131460903e-02
      -3.4729256411555928e-02 -8.5707117534380775e-03
      -2.5739732408749335e-03 -9.1657257517641210e-03
      1.7044360733140151e-02 -1.1229160680552894e-02
      -5.6005752717791643e-03 -1.2313991664915199e-02
      1.0362249917343124e-02 -8.8167224525102367e-03
      3.6663679217501769e-04 6.6486807393523872e-03
      -7.7170446506778529e-03 4.9048629020710484e-03
      1.9620066626007317e-02 -5.0443615976136892e-03
      5.9361905142101953e-03 -1.3742988560951300e-02
      7.4347712806209507e-03 -5.2266974494607240e-04
      1.1028247913213321e-02 1.4186852985037073e-02
      1.8376452669913660e-03 -1.5174825012442017e-02
      -3.6910665619863873e-03 2.2053060790182041e-02
      2.4155116573757727e-03 1.1001546473957716e-03
      4.8648541648037523e-03 2.2539711266621191e-02
      2.0188727203244536e-02 -1.1903057388788297e-02
      -8.9767055154897505e-04 1.6042633029738965e-02
      5.1294914596289919e-03 -8.7374105392604012e-03
      6.6950215910582742e-03 1.4835136690736958e-02
      1.8327484996511954e-02 -1.9456921541941865e-02
      -2.7157125295385682e-02 -1.6070523863103425e-02
      6.4980350663556407e-03 7.5691314904687322e-03
      3.7819521679559959e-02 -2.6912497173051685e-02
      4.7774968902499614e-03 -1.0221002115097893e-02
      2.4971726746976983e-02 -1.3013807879345390e-02
      5.5667498550959118e-03 -1.1519586295965493e-02
      1.9137503414298321e-02 2.4178802249897120e-02
      -7.1116270672981893e-03 -8.2374468754224932e-04
      -6.9493361687497524e-03 2.0522771182034837e-02
      -4.8730197029026273e-04 9.2307001841336889e-03
      -4.3214509835086096e-02 -5.9309286666240789e-04
      -1.9070921979483474e-03 -1.6081829203795191e-02
      -1.7242136613699825e-02 5.7499686234112448e-03
      1.6156366877960890e-02 9.4810796119987016e-03
      1.7047592569299145e-03 9.0265499576817291e-03
      -1.7766404057897082e-02 1.9646291307955106e-02
      6.3831650111972954e-03 -3.4028110556928817e-03
      -2.4414965661960126e-02 1.6501523051491176e-02
      -2.3492973938009105e-02 1.5264720969006619e-02
      7.9578623804467154e-03 3.2197252087935824e-03
      -2.1485363742233265e-02 3.6707509061097193e-03
      1.5075220005290196e-02 -1.4290016649947310e-02
      -6.0927449505976811e-03 1.2814782397577211e-02
      2.0199215784395916e-02 1.7373469148324241e-02
      9.8143165072308563e-03 4.8581126634122300e-03
      1.2163274149186085e-02 1.1611886262251490e-02
      -4.8857798758201237e-03 -4.0088875237571263e-03
      -1.4296089391242791e-02 -1.3847661784672607e-03
      3.6408786094203130e-03 -3.7145163585221822e-03
      -8.0327854298992401e-03 2.4049260529339395e-02
      1.4752154540174386e-02 2.8149855336405990e-04
      -1.9491030494653509e-02 1.9007977300436869e-02
      -4.4454349848042658e-03 -1.4749417737025986e-02
      -2.5635896756296243e-02 -1.7429133597042529e-03
      1.1116362357894663e-03 -2.1128088633847620e-02
      5.5453591571591092e-03 2.8431350638978631e-02
      1.9308292548398585e-02 -3.8408411405627306e-02
      -6.4992509577099823e-03 2.3253032296199391e-02
      -1.9950021314930613e-03 -1.3977218581862061e-03
      -1.4420554181105508e-02 1.6834815865557226e-02
      -1.4348406615856575e-02 1.7691472936407479e-02
      1.0453245983097624e-02 1.9701184031384517e-03
      2.5087260758859049e-02 -1.3170227745115132e-02
      -8.9208168736717823e-03 8.6465127417520889e-03
      -4.7034114164767361e-03 -1.9667571394353312e-02
      9.5681215013118295e-03 -1.0668941015136633e-02
      4.5514423456337512e-04 1.4916803408114052e-02
      2.5244772756712612e-03 1.5596445955494023e-02
      -9.3349859294161730e-03 -1.4631199761732414e-02
      -2.5052569519173482e-02 1.2939329928013396e-02
      6.6253194597272243e-03 3.1199954213130404e-02
      1.9178284811535308e-03 7.1071985082639191e-03
      -1.3195632680290999e-03 2.6229709336614011e-02
      -1.7398757383458208e-03 2.0014040181579748e-02
      1.2509050411198989e-02 1.8013930332449626e-03
      -1.4825140135227616e-02 -1.4065346064657610e-02
      -2.1634910696696815e-02 -1.8188716221885837e-02
      2.0475958107757920e-02 -2.1925559831808026e-02
      -9.8335069610133476e-03 -2.2863311514933333e-02
      1.0288354838055789e-02 1.1480236142276699e-02
      2.7458828149652635e-03 1.3448851221989459e-02
      3.7711371405856182e-03 5.3498942418426622e-03
      1.8877366810978562e-02 -1.0853682808403481e-02
      2.5720739292291503e-02 -3.1317286505510708e-03
      9.1220986392261932e-03 -5.3222887094928348e-03
      1.2315331788231194e-02 -2.3642069371717922e-02
      4.0561405485050807e-02 1.5164019524209621e-02
      -1.2752016162559748e-02 5.2716117074845317e-03
      1.4109346965907847e-02 5.3153098194385464e-03
      6.0565402454565160e-04 1.1194760287329899e-02
      3.2200560355485409e-03 -1.5252405424309969e-02
      -2.5160369103098483e-02 1.1972747560689521e-02
      6.4568905047485831e-03 -2.9679550911067418e-02
      2.7053866494655958e-02 6.6926570287788164e-03
      3.1537372698813059e-03 8.8520241654284626e-03
      2.6228691935090365e-02 4.9881805070877794e-04
      3.3619872115968466e-02 1.1881850638131164e-04
      -1.4710249077821196e-02 3.5624142106450922e-02
      1.8303603636358339e-02 -2.9200071616154533e-03
      -3.0253816541152678e-02 -2.6537752671070669e-02
      -4.0615522950312649e-02 -2.2208138997119680e-03
      -2.3433887658660551e-03 3.0703302782942879e-02
      -1.2900351777625402e-02 8.2502369946906955e-03
      3.2153023020199106e-03 -1.7224127530290022e-02
      1.4509051274411417e-02 2.8874445705259752e-02
      1.7521459361306977e-02 -6.7547082646813340e-03
      -1.9492282200813650e-02 -2.4366470095558406e-02
      1.3883189558848992e-02 6.4255333783939973e-03
      -1.4136393495955971e-02 -1.8740068105996040e-03
      5.1379793491880387e-03 -1.4751547931100121e-02
      1.4852176242637736e-02 2.8975988422459062e-02
      5.9621401886322499e-03 -1.8837431875990112e-02
      -2.1282913659495924e-02 -7.2191725248346942e-03
      7.4681506746616694e-04 -6.1277711752167939e-03
      -4.5557337957636583e-03 -1.6417939879499518e-02
      -1.7930781927396458e-02 1.7435215806102758e-02
      -6.2584484278059346e-03 -8.5769995670037028e-03
      -1.2929750097993666e-02 -9.7322425239441800e-03
      -9.7115030720594589e-03 -9.4031523733725776e-04
      -2.2643457029043537e-03 1.8386133924622482e-02
      -3.2867217197733735e-03 -1.6332119104727203e-03
      4.7100216580900087e-03 1.7709412883130986e-02
      8.9842185123429584e-03 4.7165509501157941e-03
      1.4031257883999459e-03 1.9489591478002010e-02
      -9.2903575872203183e-03 -1.8827240777134406e-03
      -6.1810566019085563e-04 1.9415336007011934e-02
      6.4661723952625294e-03 -1.2653090842190533e-02
      5.3379408124929559e-03 -3.3255045434526583e-03
      7.9779745427199945e-03 -1.3792814789773628e-03
      -4.4834361678643686e-03 7.2238354900850555e-03
      -1.0101268741194219e-02 6.8744224185454429e-03
      4.2923861296614635e-03 1.8642505789697235e-03
      -1.5387593956191254e-02 -1.0953852746894699e-03
      -9.1644184862549598e-04 1.0677201848083295e-02
      1.0738625922688982e-02 -6.8908491345202807e-04
      -1.2598439027838573e-02 7.7102105444024445e-03
      -4.7194843134505835e-03 1.3183030306466554e-02
      2.4199408069296977e-03 1.3425942490037321e-02
      5.2139999482283348e-03 -7.9379119519072828e-03
      -2.3807830993063505e-02 -5.9051262588401222e-03
      -2.1199586447307784e-02 6.2569474941268979e-03
      4.8193476128553072e-03 -2.1637582270817041e-03
      -5.4929800262810257e-03 -1.3334786960817167e-02
      -1.3447875301417691e-02 9.7078331805001764e-03
      -2.4381773213607676e-03 -1.4028047290961408e-03
      -1.7807553708221088e-04 -8.1885187288477934e-03
      -8.6960207416805838e-03 3.7447805609635552e-03
      -6.8796782900994837e-03 -5.6565500442227719e-03
      1.4919770414788249e-03 1.2066913903869545e-02
      -1.7651510093251613e-02 -8.2203246645344095e-03
      1.7264621288890395e-02 -9.4438766590860656e-03
      1.8715265170635143e-02 -9.6548488781078908e-03
      -1.4123135713700099e-02 4.7834218155792321e-03
      -7.9234046195271815e-03 3.0722504986848138e-03
      -1.6967000137965097e-03 -6.4105301111209894e-03
      4.8647137617996335e-03 1.3891214072331170e-02
      -2.1080190217204445e-03 -2.9289296432289173e-02
      1.4094165685354973e-02 -5.5035272773143523e-03
      -2.5623300129661362e-03 9.9975033957978507e-04
      1.6816495992013644e-03 -3.1022438352856052e-03
      2.8873758513509051e-02 -2.6590177099745340e-02
      -2.1313469093802231e-02 2.2322706071685992e-02
      1.4727857576019817e-02 1.2490605967009820e-02
      6.1113769879379467e-03 -7.8053162160240620e-03
      2.7672318568484303e-04 -6.5743991810702385e-03
      1.1918180178642860e-02 1.0782544020447871e-02
      2.0939036650611826e-02 1.3299975085816460e-02
      -1.8868591865655353e-02 3.2495700641770827e-03
      9.2282909082952035e-04 1.1732068247309749e-02
      1.1051575144696624e-02 -6.2971865712835914e-03
      -7.6138447474782059e-03 -2.1770017064902236e-02
      -1.4243668015000856e-02 7.3299435828661020e-03
      -6.8855717361061778e-03 -2.6994190135078587e-03
      -2.0124932378953988e-02 -1.5364403722325870e-03
      -1.0623751287881112e-02 2.5738488981234823e-02
      -3.3657958468952106e-03 7.2840976180141683e-03
      -1.6748990504473524e-02 1.4159990354304702e-03
      -2.2513191538615668e-02 1.4512550176803520e-03
      -8.8579261904043142e-03 -8.1692827269202045e-03
      -5.6557510715843987e-03 4.0635591937878317e-03
      1.2462757246971217e-02 1.2164205151965165e-02
      3.8549686011911826e-03 -2.5406268916300201e-03
      -1.4803015709706461e-02 -1.1993164784700781e-02
      1.7065479441691414e-02 -1.0135975553958853e-02
      -3.9252999791801269e-03 2.2897010929796048e-02
      1.1817191916926763e-02 -8.2625465109206833e-03
      -1.5897977856826843e-02 4.7784476218185046e-04
      -1.2090134267770570e-02 1.1780313270530429e-02
      2.0340596713714588e-03 -1.4318470021585759e-02
      -1.6003962238749607e-02 3.0518939092313057e-03
      -1.2942098215232211e-02 1.5801801066937505e-02
      2.9190900400770867e-03 -1.6259867274146050e-02
      -1.3052833743028932e-02 7.9148751501655259e-03
      2.9616589853499803e-03 -1.2940342317594344e-02
      -4.8062364678070138e-03 3.6812127680465414e-03
      -2.8754430979970887e-04 5.1010686037695512e-05
      -1.3467655342887332e-02 3.0545617504705587e-02
      1.6476332399213468e-02 -4.3139975343303664e-03
      -2.2534297315080026e-02 -4.0475665178997941e-03
      1.2364121167538910e-02 -4.5295359801601686e-03
      -6.8756714501934995e-03 -1.3801331186104554e-02
      -1.1822560086921082e-02 -4.0918877319582152e-03
      -6.4286986299217763e-03 -7.1404707475648732e-03
      3.0826876938558042e-03 6.8459760938994830e-03
      6.4161241369736196e-03 -5.6030741453139111e-05
      7.3645169500521903e-03 1.9604854625274691e-03
      -9.2932746306247233e-03 4.2694745510450400e-03
      4.4036622155504959e-03 -1.6956780923919276e-03
      -1.4486575660476123e-02 8.3588957426252754e-03
      1.5199302585353552e-02 -1.4043560266469699e-02
      2.4962796007464943e-03 1.3277347984550868e-02
      5.6460997584340368e-04 5.7587160515366002e-03
      -5.2669725648103599e-03 5.6286705078579221e-03
      3.2536329190510048e-03 8.3535306896968219e-03
      -2.1364444564824957e-02 -8.6804079935541144e-04
      -3.8468199127315926e-03 -3.1030930315716953e-03
      1.4984042641974038e-02 -1.9206211414458642e-02
      4.5368334633467417e-03 -8.0546024453466130e-03
      3.4819583914513343e-03 1.5448524710890464e-03
      5.5425446201531024e-03 -8.9352361065601470e-03
      1.4855832601476628e-02 6.4205953619278951e-03
      -1.1660440786821079e-03 7.0886846304497528e-03
      -4.7377990333885324e-03 -2.1552276494756231e-02
      3.1449710678137436e-03 5.4754100923821011e-03
      1.2783889980930905e-03 9.5886095862452031e-03
      7.6118101732553954e-03 -1.4086165369310200e-02
      3.1178053835965769e-04 1.7348994525437169e-02
      6.2733803740306062e-03 -4.8003432295282882e-04
      2.4394615186860587e-02 1.4955871740838839e-02
      1.5015353541055025e-03 -1.2374103139407238e-02
      -1.1319779400747567e-02 -1.5296888706752965e-02
      -1.8119189750778805e-02 -6.2357234981139497e-03
      -2.8054799127412759e-02 -1.2841658634326732e-02
      1.4245054261060684e-02 4.0850465498014459e-03
      -2.3605748517131174e-02 1.3147571307294791e-02
      1.1040958724334587e-02 -1.5270483433026678e-02
      -8.9241237880102273e-03 -1.2659218788895418e-03
      1.1169042818371315e-03 -1.2944095035502907e-03
      -1.4529814728082768e-02 -6.3083333655671939e-03
      5.0947630673178392e-03 -1.0396435953851145e-02
      -6.1798248392146591e-03 1.1287172050519296e-03
      -1.8168994046895759e-02 5.2746153666199912e-02
      -1.2028968380914150e-02 4.9533628522227119e-02
      2.2017976837859578e-02 -1.7505470012317732e-02
      1.4338039684262395e-02 2.6703780804815468e-02
      5.1011818747514884e-02 2.2526448081485895e-02
      -2.3891681768143404e-02 -6.0930932421539401e-03
      -1.6284948185265095e-02 -6.8662019276443845e-02
      -9.1060838767999808e-03 3.8088292912766365e-02
      1.4546476825498212e-02 -3.2876473539281706e-02
      -3.2106717232315056e-02 -8.3304692389414505e-04
      -3.3917716092637445e-03 -9.0256997701654278e-03
      2.9886326790476022e-03 -5.9698294741669933e-03
      -2.4308627177159575e-02 -2.2868631713945414e-02
      -2.4982896434747968e-02 3.8474692986976101e-03
      7.6868675077098785e-03 8.9554635610659301e-03
      -1.5137908350940872e-02 6.4849274571811874e-02
      2.5767591366768507e-02 -2.3402782380396690e-02
      6.9664750692711771e-03 -2.3727745951336712e-02
      1.1155044449481157e-03 -1.1700175428073329e-02
      1.5245361327674558e-02 1.9934899628418025e-02
      3.6982709765227044e-02 1.3697635160947737e-02
      9.5386619445899101e-03 -7.8105055599403742e-02
      9.4103447065984509e-03 1.2567626969934586e-02
      3.3767993866571804e-02 -5.8085220400406229e-02
      -4.6747453541628972e-02 1.0423112776128884e-03
      4.4370754246842725e-03 3.1558561235888016e-02
      2.9850573374543100e-02 -1.6346425953120497e-02
      4.0583895111859808e-02 4.5591511330875488e-02
      9.3189766323188011e-03 4.3231208878499738e-02
      -1.4598588405893443e-03 3.5428001266680720e-02
      -5.0428532346966932e-02 -6.3887068607155790e-04
      -2.2434837530010941e-02 1.2929604812799337e-02
      -1.0600003860582454e-02 -3.4071119930688842e-02
      3.8690794726860358e-03 -1.7587628176050276e-02
      -1.3563447618540852e-02 -9.7116602525991157e-03
      -5.3938975641720815e-02 -3.9279136376986705e-02
      -2.8729699057553279e-02 1.5292668394284940e-02
      -3.8308907152594211e-02 1.5215388020780171e-02
      1.2299668922013823e-02 -1.7703374774746686e-03
      8.2108384838057973e-03 3.5832469151005651e-02
      3.3704308244777839e-02 6.6939396959422122e-03
      -6.2184506780451369e-03 2.8304530715852661e-03
      4.4601311288219522e-02 -4.3334042310593304e-02
      1.8333764669440155e-02 7.0998120058501438e-02
      1.5748117037391623e-02 -2.4111986503026028e-03
      -1.1475431831400623e-02 -4.0459231566761650e-02
      -8.8760698609368499e-03 -2.0591197313640203e-02
      -6.3710314353282435e-02 1.9952358966567753e-02
      6.6308632128681136e-03 -8.5549836051928355e-02
      -1.5904925389356273e-02 -5.0175767027619014e-02
      2.7418654276726483e-02 3.2608699005855703e-02
      1.8480262426510161e-02 3.1861584260772680e-02
      2.0191701961019312e-02 -2.6721284205392392e-02
      -3.9035267740143868e-02 -2.9906153585449499e-02
      3.2609584267822629e-02 -5.4426415460367477e-03
      -2.7124543116935872e-03 -4.2255340537433669e-02
      1.2328608247961914e-02 -4.9913410691942491e-03
      2.1434722173847848e-04 7.8850960412214215e-03
      -8.5413888249489948e-04 -4.3935351615418790e-02
      5.7908349072342139e-03 3.1346480805804176e-02
      3.3172880726203002e-02 -5.5460841601953619e-03
      -1.5276673099231940e-02 -3.1245244738395898e-02
      -7.9560354811172105e-03 -7.5171874853394507e-03
      3.0562808147911014e-02 -1.7495408757143723e-02
      -1.4540946550622174e-02 -1.1338633317566824e-02
      -6.7822182370804122e-03 -5.7333756930131163e-03
      2.3764018514607022e-02 -1.1454356487112812e-02
      1.4034680737431035e-02 2.8846493416642975e-03
      -7.0138307483050702e-03 4.8552613573611585e-03
      2.6130401782812920e-02 -6.4873490619387552e-03
      -9.2803624323225316e-04 -1.4773278245822048e-02
      -1.2759273358975346e-02 2.2852996310657261e-02
      2.6616398325997187e-03 -1.8456469400165498e-02
      -2.2778203564882384e-02 -6.3296885237603207e-03
      2.0730352755136051e-02 -1.4436861169260282e-02
      6.9238068499091008e-03 -1.1987471875057110e-02
      -2.1175852534930609e-02 -1.8303415686446757e-02
      -1.7976256532724149e-02 5.6089430961787949e-03
      -1.0052183556120527e-02 6.1504254165620749e-03
      -1.8646786015508534e-02 3.5479424665129142e-02
      1.9693631773705866e-03 -2.7707359596830568e-03
      2.5009229372966218e-02 2.1592310350022339e-03
      -1.7072712649613294e-02 2.1165490775443144e-03
      2.4179829744604684e-03 -2.4159508641577189e-03
      1.4222871114927569e-02 -9.0518965677005014e-03
      -1.6606646580836288e-02 -9.4802810886489199e-03
      6.9826008189559901e-03 -1.5521255397346135e-02
      2.1087858195855225e-02 2.9240900838800343e-03
      -6.8603136463511140e-03 -1.6354352553798929e-02
      6.5394626629468478e-03 -2.7246755842051364e-02
      6.2135814176544025e-03 -7.4905009485174839e-03
      1.2903799861240803e-02 -1.6843496093892668e-03
      -2.4680419719275678e-03 5.3131360066085639e-03
      1.2393858703656302e-02 2.8456936374698146e-02
      3.3715181744389605e-04 5.0663148538867293e-03
      1.4204339891874156e-02 -4.8363619944837427e-03
      9.0667333066227695e-04 -2.7543847089061019e-02
      3.0636267003540545e-03 1.2304080864494211e-02
      4.3383168120628484e-03 1.0541314008888272e-02
      -9.5190499399928873e-03 1.5681019204549781e-02
      -5.1163974197488693e-03 -4.3497817198513334e-05
      1.4961836903370929e-02 -8.7769887681918915e-03
      1.3491219217981127e-03 -8.7512099091580330e-03
      1.4475978570056124e-03 -5.3464370915542528e-03
      2.0642262568249886e-02 1.4394039570546049e-02
      -1.0927239282418394e-02 2.1661262738784617e-02
      1.3992129094106536e-02 8.5601671580037616e-03
      -2.5992994632669224e-02 4.9045348989446430e-03
      -2.0117234695166589e-02 -4.6228710436363269e-03
      4.8870824502155483e-04 4.2107214946950173e-03
      -3.9134672599383160e-03 1.8031527724748062e-02
      -3.4480222443111093e-03 1.3791557145764650e-02
      -3.9492407566668402e-04 -1.4996308491955858e-02
      -1.9630647953522713e-02 -1.1800398210630642e-02
      -2.6237073820665167e-03 -8.7814360273946335e-03
      7.8750228308836333e-03 -5.4131848633638731e-05
      3.1678650260702039e-03 -8.9873431350550193e-03
      -5.5043574566968727e-03 1.1876769541302793e-02
      -7.0884999048201325e-04 -7.1028176460222530e-03
      -1.6316418697102014e-02 9.3365454995416501e-04
      -7.9751657630860269e-04 -8.2121475451952598e-04
      1.9335425257529692e-02 7.5430667370290187e-03
      -1.1729548407488218e-02 -7.1051181666251673e-03
      -5.0603681610936800e-03 -1.7567714904449458e-02
      7.3965304075206901e-03 -8.9412497892489666e-03
      -2.1181398559077639e-02 -1.7033950117009446e-02
      8.8396360304727681e-03 1.3619111553942225e-02
      -8.5149618495431352e-03 2.5664332343594946e-02
      -1.8476467937730730e-02 1.6678125728201331e-02
      -4.6871399543819518e-03 8.7264264568857174e-03
      1.5679002902197241e-02 -2.5620550079916028e-02
      1.1106242157813981e-02 5.9173069884117351e-03
      2.0283121164128962e-03 2.2402576593309798e-03
      -2.9919413378451361e-03 -1.0848624417939216e-02
      -9.9347588225061848e-03 -1.1917305626612884e-02
      -6.6234188100657574e-03 1.5938397961402961e-02
      -1.3430606214003200e-02 3.5126844481041760e-03
      -8.7724178372133640e-03 1.5252502501996201e-02
      -9.9480451697011238e-03 1.7873245918882371e-03
      -6.7433913288358176e-03 -1.5886557687619676e-02
      7.6202060114726334e-04 1.6304559420470887e-02
      -1.2338346954257531e-03 1.3716930346614687e-02
      -1.3705937693641449e-02 9.2342295554346029e-03
      -2.2595161985911518e-03 3.1418115874208875e-02
      1.7254724844116488e-03 -2.1501896677176258e-03
      2.1061593559448949e-03 -6.1532585853660076e-04
      1.7838309312970334e-02 3.0741789102906422e-03
      1.7434313157489263e-03 1.0898284635542545e-02
      2.8772248557554239e-02 1.3672531267490918e-02
      -2.6543313410740304e-03 -1.3782443161121124e-02
      7.5981796632458055e-03 -1.5175711757209919e-02
      3.7610291016496704e-03 -2.5477657438108703e-02
      -9.3897048835642344e-03 -5.0775863331476564e-03
      8.8907172866251032e-03 6.0394786150850957e-03
      1.7079649638349854e-04 -3.4043404055179968e-03
      1.6324934355305583e-02 2.5968662951764452e-02
      1.3859395659511465e-02 1.4402808706438343e-02
      -5.3771689859825602e-03 3.8191243967831516e-03
      -1.0395630013746526e-02 -1.8565424072211942e-02
      9.6307695034383942e-03 -1.3619019950167382e-02
      3.8490319331105373e-03 1.4879914728763229e-03
      -1.2666833944082511e-02 -1.2066526976861251e-02
      3.7295677236850551e-03 -2.1751364055613960e-02
      -1.2328611618771136e-02 -1.8854239321150289e-02
      5.6773559976042868e-03 -7.4032114397098898e-03
      -7.2873516682944858e-03 -1.5215837363649639e-02
      1.0094184190713576e-02 -1.4035903264116637e-02
      2.7756551472951354e-03 1.5423745728220270e-02
      2.5065521906131986e-02 2.5649602706639386e-03
      -6.4157182350004869e-03 1.6345612326472591e-02
      -1.0920483648862837e-02 -1.7902199852130422e-02
      2.2951700467925270e-02 2.7757845960160080e-02
      6.4941057043862212e-03 4.2598668299194198e-03
      -7.6402430397133729e-03 -1.1776335403280172e-02
      -2.3571672244032515e-03 -1.5786106776618954e-02
      -1.6573211818221981e-02 1.3349614625126325e-02
      2.0440641315807764e-02 -1.0517944820226045e-02
      1.8806344838541334e-03 -7.0945258077861062e-03
      1.8847045131630914e-02 -6.1917845060028304e-03
      2.2786982518959317e-02 -9.3094857521349456e-03
      1.8308782113904538e-02 1.8840665197774116e-02
      -2.2633830996133926e-02 9.0066748715655009e-04
      -1.9682485687613172e-04 -1.5100106681706572e-02
      -9.0127838800072441e-03 -3.2910044593766265e-02
      6.4035431492703567e-03 -4.5664512423003291e-03
      -5.5043665229288401e-03 1.1895513636050699e-03
      2.3406936269618619e-02 -5.6526991028181166e-03
      -1.4869133407999065e-02 7.9731508866507528e-03
      -2.2278640861592273e-03 -1.2579608949778654e-02
      -1.6059483439116212e-02 -2.0420201962505172e-02
      1.2629324664494124e-02 -6.9512694954041113e-03
      7.1261107322484552e-03 -3.3766900097080572e-03
      -1.2100442875979851e-02 3.4220573235311399e-02
      2.8131278501899564e-04 1.2240636644339426e-02
      -4.4014173457294142e-03 -1.1697881597713570e-02
      3.7425704372880036e-02 4.0081937306985557e-03
      -2.4197050244108764e-04 1.3672921420085932e-02
      1.6447290998778945e-02 -2.3120706686502797e-02
      1.2536982465081026e-02 -1.5404698092203226e-02
      8.0452709514832015e-03 1.1839363920214051e-02
      -6.8955573503318018e-03 2.5112588569105487e-02
      -3.7084220679706320e-02 1.6298068678959193e-02
      -1.4722542831550046e-02 -6.5955814541615379e-03
      8.9506725441949753e-03 -1.2060582509458104e-03
      6.1789934408304605e-03 -1.6768825776756931e-02
      2.6145980083156935e-02 3.2986652710902363e-02
      8.4216569844371494e-03 -5.7721983641867219e-04
      -2.6970905458333246e-02 2.8907363991005606e-02
      -1.1399997277969128e-03 -1.2602650125905916e-02
      2.7676641743473028e-02 -1.8555038348680903e-02
      -2.8524849359917817e-03 -1.6454769564392537e-02
      2.1022273739324221e-02 1.5122923610087165e-02
      2.3157378685278590e-02 3.7277918914809679e-03
      -2.6154867750182362e-02 -2.1263377101368795e-02
      -4.3781331073855360e-04 -1.3290555364246500e-02
      2.9660331896792517e-02 -1.6896665434759709e-02
      -1.9711933318856716e-02 -8.4705818549335129e-04
      -3.6554666996551593e-03 7.2197435088021764e-03
      2.2303311619177472e-02 -2.2058978691370389e-03
      3.7877894386570278e-02 4.4678909123647893e-02
      1.9554635464834512e-02 -7.7163731882084162e-03
      -6.5763752439205484e-03 2.2038893917550616e-02
      2.7320561470642432e-03 -1.2614833978297307e-02
      -2.6479208424810333e-02 -1.2901055149276426e-02
      4.7903433400800065e-03 -1.7174472755176553e-02
      2.0472768655394800e-02 7.9559172770430481e-03
      2.0204482140793862e-02 -3.2903116736947666e-02
      -3.9959409941365334e-02 -1.5277848213317716e-02
      7.3621874395728001e-03 6.2247062957001440e-03
      2.1567990024791390e-02 -4.0743527518343342e-03
      -3.3168580703544712e-02 1.2837899832659357e-03
      1.4527839104575020e-02 1.8266495377412314e-02
      3.6800764281464379e-02 2.8653412126376548e-02
      1.2919789399987920e-02 4.1894600194434986e-02
      5.4504043622981861e-03 -4.1574254987492926e-02
      1.8715120007724892e-02 3.2862549134287558e-02
      9.2098776480892160e-03 2.1847924561435958e-02
      -3.2392202137477899e-02 2.3299789633476494e-03
      7.1486814283903835e-04 -2.1753349022803556e-02
      -9.0180312854238331e-03 1.5823403945428402e-02
      8.8599224242114571e-04 -1.8503680562641647e-02
      -2.9880442875808489e-03 -2.6230897017429956e-02
      -6.8380891415499769e-03 3.4258682554026879e-02
      -3.6795576326248847e-03 1.8609853303379397e-02
      -1.2198834961047430e-02 1.5753277798486946e-02
      -2.3190350846328159e-02 -1.1654402881829756e-02
      5.8048857303056606e-03 -2.0361521669359419e-03
      -3.8097338420593561e-02 -1.0545330858469920e-02
      3.0805308767528471e-03 -1.7933759878738166e-02
      -2.3665784443663879e-02 -7.1984768601794039e-03
      2.9668383810339715e-02 -8.2983370219699738e-03
      -1.3156377064900063e-02 -1.4640148802768205e-02
      1.6049774093850670e-02 -1.0592291962394492e-02
      1.3216854271318130e-02 4.2897379698369832e-05
      1.7084322529596314e-02 -1.7061939660987575e-02
      1.4726273655629434e-02 9.4939456439290908e-03
      -1.9032964774722992e-03 8.5942185547198000e-02
      6.1144359441514792e-02 2.7181339507803388e-02
      -6.5738818221665662e-02 -2.2587810953280673e-02
      8.1090906535618804e-02 6.0286363868527794e-02
      -1.2860658515958943e-02 2.1745768838814131e-03
      3.4395885787235896e-02 -4.1420372103708081e-02
      1.9644341739817231e-02 -1.7466727734709187e-02
      1.1081455242136860e-02 8.0775829950866448e-03
      2.8546620402876816e-03 6.3753084082636441e-02
      -4.4003110679021830e-02 5.2683471113574437e-03
      -4.0995096231190679e-02 -2.2586899617444801e-02
      -4.8997605166851269e-02 1.5439207557110023e-02
      3.3097768642859821e-02 -1.8818673348267523e-02
      2.1520903298532554e-02 3.7842908068743991e-02
      1.4841774085076764e-02 -4.5371022031100517e-03
      -4.3087411562488027e-02 -4.3237540300765917e-02
      -1.6407823400549922e-02 -2.6586605405680198e-03
      2.7463160403347842e-02 1.3249421553510315e-03
      4.8006884061982620e-02 -8.8250011694518526e-03
      -7.1395851969984986e-03 4.5978519080825710e-03
      5.7440756116496957e-03 4.1030274955235778e-02
      9.3424098320521714e-03 -4.9654471234621897e-02
      -1.3605065053962733e-02 3.8462537716896457e-02
      5.0889537472046262e-02 -4.1620108224137878e-02
      -2.6382667472120022e-02 2.2537495230589857e-02
      7.1371584714794998e-03 1.1142792213252784e-02
      -4.1020939536155848e-02 7.3343894846821340e-03
      5.0402775707200878e-02 6.0011478521686548e-02
      4.3325073588873643e-02 -1.3472673597433281e-02
      -3.4495012561008911e-02 1.6959670147626449e-02
      -4.4214030149371746e-02 -1.9998837640930668e-02
      -3.9034901692297418e-02 4.2602452218898253e-02
      -2.6629953793943416e-02 -6.1844169691597940e-03
      3.7010990689108646e-02 7.1369336396629214e-03
      7.8350703428130469e-02 -5.9191240057851223e-02
      -3.9987403412079077e-02 -2.5863313385144800e-02
      6.1883103727833899e-02 -5.7094000066746304e-03
      9.1846063520082302e-02 -3.6685305069982611e-02
      -9.6362348392273686e-03 -1.5956858230442954e-03
      1.9908498643400668e-03 -1.9057309915949842e-02
      1.3554919283923156e-02 2.3963565750605174e-02
      2.7154825860603658e-02 2.8505633333211090e-02
      -1.3473336674286195e-02 -6.9159728840312695e-03
      5.1371171294057300e-02 5.5122138583582114e-02
      6.7522528650007657e-02 6.2278820606392796e-02
      -4.3123579040402697e-02 -1.8928856312281150e-02
      1.0779353492667770e-02 -3.5491203553307503e-02
      -3.2835809061783960e-02 2.3696617324864628e-02
      2.8464654116540606e-02 6.1202154087429864e-02
      5.0700256240695189e-03 -4.0526948200920523e-02
      -2.9026252346198541e-02 -1.4944486232460837e-02
      -1.3008056020911126e-02 1.5925109630496245e-02
      -6.8081603341602764e-02 6.4340419595817891e-02
      -5.8111183928366172e-02 -1.4317254329688226e-02
      -8.4200242349514367e-03 -2.1103609580520700e-02
      8.0826347885201173e-03 -1.2329032063457434e-02
      -2.6249131137923093e-03 -2.7001863709156394e-02
      -4.0819757384852162e-02 -2.5006053173665714e-02
      6.5260297948478013e-02 2.8239377872031384e-02
      -1.2804602903143733e-02 -5.1304735039153351e-02
      3.1041202649309461e-02 -5.1168431894175776e-04
      2.4097260112127462e-02 -8.5057515388828279e-03
      -1.4340564877291484e-02 1.1065071826781639e-02
      -2.1482897210733667e-02 -2.2142423389380259e-02
      3.6705321755490820e-03 2.5278738424408663e-02
      3.1467843698820760e-02 -6.3928455837827169e-03
      -2.8610597687026902e-02 -2.9734111345630802e-02
      3.7914683580865312e-02 2.5393754089917904e-02
      -1.2792029548693280e-02 5.9344349708892706e-03
      1.5137412542963866e-02 -5.9119032668915328e-03
      -2.3261722892715612e-02 1.0878040340385928e-02
      3.1274494619249350e-03 -2.1255450568309919e-02
      6.8213348234828280e-03 2.6489066157178984e-02
      -1.4043425619713496e-02 8.2804571428921666e-03
      -1.3966475126999670e-02 -8.2644434516099471e-03
      -5.3665553541607253e-03 -1.7543371264031405e-03
      3.0616658782617101e-02 2.6040843758014021e-03
      4.6584228390879313e-02 2.8418165330029829e-03
      1.7687802397630389e-02 -1.1707384918624001e-02
      -1.1135968794380911e-02 -1.5256144669912526e-02
      -2.3538069506270881e-02 -1.0931896007681810e-02
      1.0770834262744926e-02 6.0346704539625748e-03
      -6.6068728934625728e-03 -5.8960509369638692e-03
      1.2499702140943102e-02 2.5180750577876465e-03
      4.5269493458584336e-03 5.1835904198425896e-03
      1.3357489982956025e-04 2.2637341495094575e-02
      4.5319711988477370e-03 5.0465718738523331e-03
      3.5546871076766934e-02 2.0316341488477576e-02
      1.2981916993173345e-02 -7.9152028544979200e-03
      -2.2905159930980384e-02 -2.6237088793114094e-02
      -4.0535111989137501e-03 1.6198924276693602e-02
      3.9472804642975015e-03 3.8473949843241179e-02
      -1.7565402122546223e-03 -8.6019794526587690e-03
      -2.0399764170636121e-02 1.1282012899453799e-02
      1.8332920396838242e-02 -3.2038592077919641e-02
      -2.2901030231054446e-02 9.4493175072246256e-03
      -2.7287638554487108e-02 2.1720632479838432e-04
      -1.5481642844740615e-02 1.6864555593727321e-02
      1.7765406648657923e-02 -2.6365125307926177e-02
      -5.1286742113576013e-03 3.9308486095104905e-03
      2.2652554878768247e-02 -1.2218887078507890e-03
      3.4360630114170891e-02 -2.9227214903693604e-02
      -3.0022316891804124e-02 7.5200959600518228e-03
      1.5678800195856584e-04 -3.2574373600118417e-02
      -8.8704296932412465e-03 1.8300188944523347e-02
      -6.1617516682912626e-03 2.9277288085532649e-02
      -3.1964078406990543e-03 -5.1692607932934140e-04
      2.8095341109000476e-03 1.5415166735268260e-02
      3.1720401113648249e-04 3.1448833345900741e-02
      -1.7447399153001357e-02 -8.6358986669479061e-03
      1.2701899612804003e-02 7.0638372819441988e-03
      7.9029426042740766e-03 8.5388796207884633e-03
      2.6551839200515678e-02 4.4354543121652337e-02
      1.0305240994790191e-02 -1.3757459748301580e-02
      -1.3169518065090903e-02 7.9167121568172478e-03
      -5.2279135245592448e-03 -6.9480637325881091e-03
      -1.5155274715711308e-02 3.9467599524534637e-02
      6.9904663398394126e-03 4.4902013086796349e-03
      -1.6341228738060497e-03 5.3943580216074443e-03
      -2.2220229894090789e-02 -2.1412660851096159e-02
      -6.6745035582760270e-03 -1.2383961336887475e-03
      -1.3086335675978163e-02 -1.4458587130357092e-02
      2.6955789159621355e-02 2.3284360058910155e-02
      -2.1970554745059170e-02 -2.2337889907908949e-02
      2.5229007846236896e-03 -3.7611690285468888e-03
      1.3814908426357528e-02 1.4197409068868566e-02
      3.4619712199595457e-03 -1.9289272776367019e-02
      1.4650937051220621e-03 -5.4405085756096139e-03
      -1.3715478060530776e-02 -9.8642160700799578e-03
      -1.4117894390718881e-02 6.4808982023732203e-03
      9.3890720399935224e-03 1.6615677640235869e-03
      -5.1090395154746093e-03 -2.2233205071644127e-02
      -2.0041176511513943e-02 -2.8336329672702582e-03
      -2.1849134575372200e-02 7.3206667146832587e-03
      3.9913701110860234e-03 2.2554655221081136e-02
      1.7301821770377500e-02 -3.7948216009723273e-03
      1.0029918876288967e-02 6.6815075069496781e-03
      2.1887714023751580e-02 5.4506476690994151e-03
      1.9619041629804759e-03 5.9461767217431436e-03
      2.3188572423449318e-02 -3.8362656625079818e-03
      -5.7056460280414710e-03 1.6962002427670719e-02
      2.1320267185983208e-02 7.0661062784715544e-05
      8.8696466190319855e-03 7.4167695577813655e-03
      6.7424282953744601e-03 7.5173788418644795e-04
      -9.2226114969386364e-03 -2.6091471785986389e-03
      -1.6238212424514529e-03 1.1694000216868464e-02
      -1.0502130446187460e-02 -6.2246502137169922e-04
      1.2230416715223185e-02 9.5806731672751361e-03
      4.5689029336013647e-04 -2.7179948141136173e-03
      -9.3851688618813659e-03 4.6295981332789438e-04
      -1.0844709375473759e-02 -8.6446181215671831e-03
      1.0859771015035926e-02 2.8926744610362438e-02
      9.4732253533877150e-03 -7.7981388238465331e-03
      -1.2587897763686165e-02 -1.4360923823896978e-02
      -3.6292807111680159e-03 -2.9228849270658726e-03
      -2.5194347158561110e-03 -1.2151768411924615e-02
      -2.5387166866204756e-02 1.6190019500071665e-02
      9.3701952777514169e-03 -1.1780287143559129e-02
      3.5164889396979288e-02 -1.4101734704581054e-02
      1.2352974697963346e-02 -3.2034528946926794e-02
      2.5352314679470897e-02 -4.5011677868313209e-03
      -4.7460900487730356e-03 -5.1444355056452940e-03
      -4.6210007576878596e-03 2.3758225042210607e-02
      1.8289741816957136e-02 6.1590668408939538e-03
      -1.8564317278183043e-02 7.3252441643138697e-03
      -1.1308393962233392e-02 -4.2110854566518984e-03
      -5.9759201804448067e-03 2.2271219928121463e-02
      1.4640180231144597e-02 6.2590595259783294e-03
      1.1488698322725643e-02 -1.9334860094006777e-02
      1.7117060861661512e-03 1.5364139862172662e-03
      -1.7946449596200769e-02 -2.0835229291117749e-03
      -3.0954815851503429e-03 1.0669744787779274e-02
      -5.9809515781174888e-03 -1.2774098585655418e-02
      9.9894168528043732e-03 8.8329375504747135e-03
      6.3106455820435966e-03 7.9141299486269381e-03
      1.2580228375883186e-02 1.9595171408042358e-02
      -6.6418892450046795e-04 1.4995526489806637e-02
      1.7345379728050344e-03 -1.4236308359225970e-02
      6.4253090066400294e-03 1.8622610973829567e-02
      -6.1431990522400441e-03 -1.0318972879735908e-02
      1.0128568110272193e-02 8.6822041400450526e-03
      1.4035794526014271e-02 9.0894022972387873e-03
      8.8627219097440601e-03 -3.7282725329394009e-03
      -1.5854444154721623e-02 -2.4164569596835456e-02
      4.9524749558048893e-03 -1.0359732948084607e-02
      7.2892836812958718e-03 1.1339246137333073e-02
      -1.0420922051900278e-02 -3.8668381941158137e-03
      -7.7685757871559201e-03 -1.2763243007932645e-02
      -1.6291737289339182e-02 7.9100019027427554e-03
      -1.4543296585319589e-03 1.2788209408585258e-02
      1.9292882335447382e-02 -2.0978474734021865e-02
      1.5333541866302949e-02 4.5334279031752642e-03
      -3.3705911955992263e-02 -1.8862739172590616e-03
      -9.2204032437044788e-03 1.7186898647323510e-02
      1.6608084204617301e-02 -1.2301524176991313e-02
      9.4734867309819188e-03 2.1069281452404040e-03
      -1.0771905927957294e-02 9.8703394854492039e-03
      -1.5739099842158301e-02 -9.5818244196902800e-03
      3.7835470849744072e-03 -1.4613825548544063e-02
      -2.6710511687221637e-03 -1.2069767313725414e-02
      -1.4607142277785168e-02 2.6636353652954078e-03
      -1.7569400884177522e-02 3.8282674525985695e-02
      -1.8746809687321252e-02 2.6880758493642080e-02
      3.3988453203819470e-02 -9.4764513592540036e-03
      6.0913361073261041e-04 1.7326542075179932e-02
      1.9376800420254438e-02 1.5083936354539869e-02
      -3.0445330986343912e-02 -2.3069684016704589e-02
      -1.9144087793648248e-02 1.7454485753316408e-02
      1.7552217064369262e-02 9.9110023469591328e-04
      9.5837061459162470e-03 -2.4188762980596305e-02
      1.4695876640128969e-02 -1.8783653606943004e-02
      3.4618525926968821e-03 1.1001052683576248e-02
      2.2254314405545959e-02 4.7922359791763586e-03
      -2.9576811102310873e-02 1.0713523047938475e-03
      -1.9404054368010470e-02 -2.5427754404234001e-02
      -2.3023300349633839e-02 -1.7046994458301361e-02
      -3.6117865336751480e-02 -6.3853421685863641e-03
      -1.1867472292803471e-02 2.3066284032041428e-02
      2.1014666497794366e-02 8.9845771334060055e-03
      2.0910111176563204e-02 -2.7028595891439761e-02
      2.3303507256177157e-02 3.3238829468252742e-03
      1.1123637545897458e-02 -1.1534369458287124e-02
      1.6803516855049064e-02 -3.0700063558912812e-02
      -1.2590516287907723e-02 -2.9739751725388230e-02
      1.6713924981307870e-02 4.1448635454719836e-02
      -1.7176591658022310e-03 1.3008011114435768e-02
      9.5460078930101437e-03 -1.9440278130176975e-02
      -1.9110681945055618e-02 -3.2312503201862734e-02
      1.4166157117767361e-02 2.5354627151644026e-03
      2.7157066923785725e-03 -1.2987811439178621e-02
      -2.5967013975046999e-02 1.2836645632239581e-02
      4.4027040367330711e-02 3.6253737413736810e-02
      5.4040318231147008e-02 1.9035277033435068e-03
      3.9762043221681295e-02 2.6266235764010062e-02
      -6.8078539196279840e-03 -4.1048549805614509e-02
      2.4835506857195815e-03 2.7322850060854692e-02
      -2.0302621571417438e-02 -7.6103591152376620e-03
      3.5740786381507931e-03 1.3853721188382065e-02
      3.2124108057198550e-02 -3.8061527280773243e-02
      -1.8710907619536074e-02 2.4068583165932158e-02
      -3.5340653560482320e-03 -2.4242996578271100e-02
      -1.8154063572724217e-02 -2.5677975660071337e-02
      6.7330448550347623e-03 1.9201218040555058e-02
      2.4311213606831802e-02 1.0408487353768521e-03
      -1.6297810552950865e-02 2.5020801215289833e-02
      -3.5161430204183365e-02 8.6325242573033392e-03
      1.0563042130205870e-02 -2.1034615115571514e-02
      -3.9223883367918030e-02 -1.0915510774271952e-02
      1.0627177915190859e-02 -2.5973467267590328e-02
      -1.6831070067289511e-02 1.3572180563528042e-02
      2.2172147704794698e-02 -3.2531038644962838e-03
      1.1075692859925594e-02 6.3543579832250402e-03
      2.3517503691414952e-02 -1.0548580431258787e-02
      6.9476396898448933e-03 1.9964227254729384e-02
      2.0184724408281750e-02 -3.4924199431648144e-02
      3.3177419069751325e-03 3.1044140141352976e-02
      -1.5252572774204935e-02 4.3473822062565313e-03
      -1.8877055596273876e-04 3.0724776107556823e-02
      -2.1150281877904960e-02 -1.6534225929652226e-02
      2.3961087669224926e-03 6.0706539425700338e-03
      -1.0345794680982228e-03 1.1714570481760092e-02
      -3.1286750181829047e-02 -1.4107356053535620e-02
      -4.4308801244806691e-02 9.2033656312464594e-03
      6.0969202172101791e-03 -4.8445247289723055e-03
      -1.7033853355779649e-03 1.6356801173613763e-02
      -1.0796744276779378e-02 5.1398189998385349e-03
      -3.2178438725424745e-02 2.2589189720120927e-02
      4.6141948484844080e-03 -1.4922554517294817e-02
      1.5319343811410780e-02 1.2706624051094377e-02
      2.7134757895727314e-02 9.8471524188256786e-03
      -3.7525346920885714e-03 -8.7151803100257493e-03
      -5.7607118380019647e-03 1.8896358705730792e-02
      1.2182952870682310e-02 -9.6507467512704434e-03
      1.3208144258136267e-02 7.7357622699461889e-03
      -1.7451758681691187e-02 1.9774812304420034e-02
      3.3584119360908132e-04 9.3424289053988939e-04
      7.3809767413534318e-03 -8.2024006104870328e-03
      -9.0263245550111833e-03 -4.4015196990980316e-03
      2.3858157981953152e-02 -8.5817877573854361e-03
      3.4505979311100866e-02 1.2708814367174370e-02
      -2.4001409169808481e-02 -3.3132868218379789e-02
      -1.5367073519636263e-02 -9.8652691804973856e-03
      4.3589595831197894e-03 9.6500374231227870e-03
      1.8364507385580039e-02 3.3351684814438884e-02
      -2.6093818451126457e-03 1.0258030827181252e-02
      5.3187336876351146e-03 -1.0333572171307280e-02
      5.3880787769298617e-03 -2.2834047164315727e-02
      -1.9870520646759413e-02 -3.1882234934952687e-02
      5.5319165774605945e-03 -3.4126489967743256e-02
      -1.9215361056139770e-02 -1.8200768340077958e-02
      4.3999002093622229e-03 2.3709591837579704e-03
      -9.1575547171780650e-04 -2.7479594781557318e-02
      -5.6136728120011872e-02 3.9162580280179216e-02
      -1.4637240739716728e-02 -1.1484694422380162e-02
      -4.3639488620815334e-02 -3.7901531778386493e-03
      1.3260543376544547e-02 1.9540991725954617e-03
      3.9518278783679993e-02 2.0165046788918603e-02
      1.7339459022567513e-03 -1.1159609493688514e-03
      1.5589035541886839e-02 -2.9957694921127303e-02
      6.2732137123423174e-04 2.5958459236759372e-02
      4.3927115741174052e-03 1.5158207445112622e-02
      -1.9499490217222935e-02 -8.9497864267592871e-03
      -1.4255216676957276e-02 1.5926621701168667e-02
      -5.7357481814687989e-03 2.1488288361303214e-02
      -1.0890865033673499e-02 -3.0153510789978653e-02
      -1.9900194190283209e-02 -5.1143722414798545e-02
      1.9907871430067333e-02 4.4738530068489761e-02
      -2.8032503296168246e-02 3.2655581404971282e-02
      4.8481427477211791e-02 -2.5870075516899585e-02
      9.4783645261952987e-03 1.5178233337112444e-03
      2.9927915132067110e-02 1.9277798664278825e-02
      -5.4776986077274839e-02 -5.0961911573407015e-02
      -3.2379592777714620e-03 6.9344259328628565e-03
      -2.7988345041829164e-03 -2.2442427006899761e-03
      6.8236056010823228e-03 3.2471675426308912e-04
      -1.8608713525169188e-02 -3.1553520412109182e-02
      1.7829143410444141e-03 -4.8021191334412750e-03
      1.4336425607404295e-02 2.6025584037192951e-02
      -1.0165442337467740e-02 -1.7719462496981211e-02
      1.0767142385523886e-02 -1.9745274285060777e-02
      -2.3726601785070623e-02 2.3441615583859401e-02
      -9.3876594889456631e-03 2.8741527752467716e-02
      -6.1935550292958538e-04 3.0065088182233816e-03
      2.8763648918069644e-02 2.2147556044331940e-02
      2.0897498529074850e-02 2.1631476440481311e-02
      -1.8049107059593106e-02 3.2403826037752494e-03
      -2.6369425074002667e-02 -3.3751107111185549e-02
      -1.2010198285899681e-03 9.6683396331596391e-03
      1.9593838094737456e-02 1.0412109245616355e-02
      -3.0037069866600572e-02 2.6304594117520126e-03
      6.2343419202640178e-03 8.0930300426656663e-04
      1.6142774266773751e-02 1.6736756223889041e-02
      1.5143135223451990e-03 3.3173393562361571e-04
      9.7168770581053318e-03 -5.4007858666095662e-03
      5.9832225737550190e-03 2.7779166431025578e-03
      5.9061412142595894e-03 4.3141820187038035e-02
      -1.1502871867248657e-03 1.0385018921463133e-02
      -1.2611447041196622e-02 1.9427976569813283e-04
      9.8427117295128326e-03 2.9346278525257848e-03
      5.9147243894072631e-03 8.0076170312496902e-03
      3.4778688387225594e-02 -6.4660257641634350e-03
      -7.5260851760635154e-03 -2.9328946359958356e-02
      -1.2020384285086937e-02 -3.0551713045280080e-03
      2.4961185341458900e-02 -6.0601452875087072e-03
      -2.7377935065675051e-02 -1.6158016968357090e-02
      -7.7700223075564511e-04 -1.2900411725485429e-04
      2.5440479164323383e-02 1.6202544240444160e-02
      -6.6038509311393918e-03 2.3249831855557464e-02
      -3.8557248993675536e-03 1.1067185793453416e-02
      -8.9158998625354612e-03 -5.1420621443216486e-03
      -2.1347610746902061e-03 -1.4951499743294865e-02
      -1.9357815965610564e-02 -1.1515585423373897e-02
      6.3811769299336567e-03 -1.8891063523651150e-02
      -2.2603791633096899e-02 -1.7008216402965202e-02
      -2.2855103613808464e-02 -5.7975347103772171e-03
      -2.8515914214899379e-02 -1.6772835544046488e-02
      -2.9370387500440787e-02 1.1025945053523990e-02
      -2.5976095625116685e-02 -1.4127764915661136e-02
      -8.0081592719253875e-03 5.3667708751490625e-03
      2.0718738621529540e-02 2.9611926601629496e-02
      4.8522437386629570e-02 7.7782923633749358e-04
      -1.3963634576899067e-03 1.0019417431034228e-02
      1.1006524058669143e-02 -3.3106298069734322e-02
      2.0496786438465506e-02 2.9520041224038149e-02
      1.7804401282876532e-02 1.7823844115369496e-03
      -1.5409050533766629e-02 -1.9111227612158686e-02
      -1.1532780091705363e-02 1.4573119209704945e-02
      2.6487390586936500e-03 1.5294987541641341e-02
      5.9054551416629656e-03 -4.3683504101440472e-02
      -2.3847329532651732e-02 -3.9943548933161106e-02
      6.9576190291948635e-03 1.5988918092630595e-02
      -7.1058595814777852e-03 1.5191057808801610e-02
      3.0267334444585545e-02 -2.1517021320666879e-02
      -9.2378833770683736e-03 3.8804588231042990e-03
      3.6671404511281147e-02 -1.0025879794770891e-02
      -2.2241403657426304e-02 -2.9629404012277028e-02
      -7.3028704861276212e-03 2.7940042894359063e-03
      -2.0877518089483758e-03 -1.0357398487195314e-03
      1.9888465772652107e-03 -1.7880938733534770e-02
      -1.7971096780204313e-02 4.3926038549767926e-03
      1.1677278382948759e-02 -7.0017714956099604e-04
      -8.7152735723357438e-03 -2.9354270732039733e-02
      4.9197825285728974e-03 -2.7008474034932481e-03
      9.2995883521454770e-03 1.3806257387160957e-02
      3.5368917961392057e-03 -2.6249758940036314e-02
      -2.9396627798617227e-04 -2.5273116318916208e-02
      1.5578410717161796e-02 6.9568937840127319e-03
      -1.3406407473404791e-02 -1.3654076584256670e-02
      6.4114504227572779e-03 -1.6211145433025022e-02
      1.0443146041653591e-02 2.3642991443363309e-03
      2.1107955540991164e-03 4.6588124964683968e-03
      -1.0261625487126289e-02 -3.3613429747906035e-03
      -1.0940138405357513e-02 2.3513117139559451e-02
      -1.2440636836695052e-03 -1.1522327740185974e-02
      -6.4982131834925134e-04 3.7067310499606923e-03
      -2.5375689872532991e-03 -2.4231868731538857e-02
      -1.1395753821533615e-02 1.5184094032565946e-03
      7.1393204613745377e-03 -1.7322910962063690e-02
      1.6040765060955753e-02 4.9757745994773389e-03
      2.1975998344891223e-02 -2.4715170736372655e-02
      4.3975039328936170e-03 -1.1323723474065203e-02
      1.0127408398925274e-02 1.6562556006814472e-02
      -6.5771383367300360e-03 4.9382238730988496e-03
      -1.3681302589807131e-02 6.8329631985632492e-03
      -9.2167767243366144e-03 5.9564280532394239e-03
      -4.8946550468541225e-03 2.6126476522369990e-02
      1.3523906437547844e-02 1.8534126763106529e-03
      5.7404706425210989e-03 1.1504174735088359e-02
      2.4350576123548549e-02 -1.9133337448419593e-02
      1.0769151173016203e-02 3.9910658665237263e-03
      4.1177001748888649e-03 8.1769580535072731e-03
      7.0075505615588406e-03 2.4701010648375838e-03
      -4.0602839586172286e-03 -1.4374897733007397e-02
      1.7006934556072668e-02 -7.5487177895741490e-03
      2.1271686349083389e-02 -5.2255465550530853e-03
      -1.4303948361303118e-02 -1.8063471291508645e-03
      -2.2083485859995498e-02 7.8663017129123255e-03
      -4.7297443077656421e-03 1.6720083328964987e-02
      1.4148574300079250e-02 -1.0084939543143706e-02
      2.0597168719890212e-02 1.4657625082320934e-03
      1.6928426821930635e-02 1.6540058431313696e-02
      -8.5883239851194514e-03 -1.0919119140316234e-02
      1.3522998166817653e-02 -1.6778514789343578e-02
      -1.0882391741215332e-02 -3.0802381890661246e-02
      -3.0693907309471212e-02 -3.0038928805793466e-06
      -2.6390590217036096e-02 -6.4909278805354003e-03
      -7.1971149279822424e-03 1.9996166006589915e-02
      -5.3017437757994701e-03 -3.2322293983352681e-03
      -1.8454269646921456e-02 -4.9175432722525954e-03
      6.5563963457313489e-03 3.8934095727960220e-03
      1.3596412537378273e-02 2.2618377433004807e-03
      9.4903918514844896e-03 2.2038597093192934e-04
      -1.0069291907274080e-02 2.8220927558009205e-02
      2.4811330031578677e-02 7.8661841575520947e-03
      2.2582924093936673e-03 3.0481964496807982e-03
      -2.8021489494775564e-03 1.0711940947377889e-03
      4.8212217802611418e-03 2.2453885429373549e-06
      1.0133957666139838e-02 1.6932102345999168e-02
      -1.0793295134736246e-02 5.4397187625843954e-03
      -1.4564574775712762e-02 -1.1085576027394239e-02
      1.2089474217097357e-02 2.1955191416610509e-02
      1.1810892499666745e-02 -8.4379131360249066e-03
      1.2244765671013947e-02 1.9669972745685941e-02
      7.1860650292453476e-03 5.9525248108865114e-03
      -2.3187911778867159e-03 4.6103020264313581e-03
      3.8315222962491788e-03 2.7119700257366933e-02
      9.9004768746112568e-03 8.6226010180176227e-03
      5.3396516513350917e-03 -1.3414402912824122e-02
      1.4797059841878553e-02 -4.7434415143607772e-02
      -4.4319677048054460e-03 -1.1132759160619803e-02
      4.3742447803515577e-02 3.2405972454847186e-02
      3.4148363321178329e-03 -4.4684407854747511e-02
      -2.0853612224076567e-02 -2.5346810233417116e-02
      -1.9665726080368040e-02 -7.6964969158495308e-02
      1.6550354706194124e-02 1.0238632433055459e-02
      -5.6565946045372441e-02 5.6396928409030477e-03
      -2.4520876945863745e-02 -1.2377701524721252e-03
      -3.3189256660763099e-03 -2.2004893899444090e-02
      1.2301104280490424e-02 2.7530440317603842e-02
      -6.1524827970407710e-03 9.2625712107411351e-04
      -4.2474326867962778e-02 -1.6443004996316176e-02
      -5.6574186302441633e-03 -1.7002969246266413e-02
      -3.1563684740169254e-02 1.9725548160598842e-02
      -2.9559468935456998e-03 -1.1263206741228092e-02
      1.0630214829484900e-02 -3.7293857884360189e-02
      3.0686750405645342e-02 -6.0957816204475507e-03
      1.3710397872805737e-02 -3.3741805922079142e-02
      -2.5548553254115525e-02 -2.1701098313327338e-02
      -4.9905337167494852e-02 -9.6556733339050235e-03
      -6.3178471896879083e-03 -5.4508622748471389e-03
      1.2842764782425820e-02 1.8697149764030908e-02
      -1.9000592511952897e-02 -2.6376619660687755e-02
      4.3544138512192181e-03 1.3783234348385371e-02
      2.8076706135212539e-02 -2.2056515731311527e-02
      1.2340101378450841e-02 1.9672669597447113e-03
      1.2408508805050417e-02 -3.4615923411430022e-02
      5.6662246877193519e-02 -5.1874134651037254e-02
      4.4130588631831856e-02 -2.0366289561772519e-03
      -1.2945215978220343e-02 5.7646287925475888e-02
      -6.2820334645521487e-03 -4.5397106439565613e-02
      -1.7217326399717219e-02 1.6499796889462303e-02
      5.6835137145127550e-02 1.3057768975414153e-02
      1.9276856659513650e-02 4.9686043276190063e-03
      3.6216829200591810e-03 5.0062749001380698e-02
      -3.7788114898504766e-03 4.1191093911335692e-03
      1.5120151004605176e-02 2.9243404198036001e-02
      -4.0683377659637117e-03 -2.1526983396845400e-02
      -2.3811971893920723e-02 1.4315849073741003e-02
      -2.5416435808038762e-02 1.5263482968280489e-02
      -9.0686145821295486e-03 -1.6345067552583650e-02
      -5.5292484288870777e-02 2.7349375629322024e-02
      9.2307394918144485e-03 -4.2230233202252221e-02
      9.1827131071028512e-03 -1.3612327260743594e-02
      2.8468539955777063e-02 1.8456400333577653e-02
      1.7257451305480974e-02 3.5813103207422300e-03
      4.4297502701018170e-02 -2.0390125584266158e-02
      -1.7940276166005128e-02 -1.4174591439154277e-02
      3.3521878417342728e-02 -5.0334682431144029e-03
      -4.6195322457018670e-02 -4.3929199660836526e-02
      -4.0310518666474636e-02 5.5786618312967230e-04
      4.2779886892061102e-02 -1.4134727456924973e-02
      8.7198060164032937e-03 1.4386008225908716e-02
      -1.4830286197819712e-02 -3.8596718858566722e-03
      -3.1069439156334269e-02 5.5159064253379542e-03
      1.8918103565955718e-02 1.8601982765482097e-02
      -1.5159242445273937e-02 -1.4477015346291987e-02
      -1.3993881794681511e-02 1.2682021914005993e-03
      1.8180734925473035e-02 -7.6505421497577893e-03
      2.0849396910999789e-02 4.8330999365608605e-03
      -3.5144159584522938e-02 5.8849856084191660e-02
      1.9965412464550184e-03 2.0521186968600225e-02
      -3.0049994955191107e-02 1.0789878832902377e-02
      -3.4644517744707639e-03 -3.2381481633241005e-02
      2.4757490432778121e-03 -5.2529260909338652e-03
      4.2795394049987737e-02 2.2247787677509533e-03
      1.0520216004894630e-02 -9.7948609339618934e-04
      -1.8627751584342472e-02 3.3748206156749374e-03
      1.3328868901087584e-02 -1.9624748952160931e-02
      1.9664679155943721e-02 2.3719376898491323e-02
      -2.4857519926940290e-02 7.4211746661740829e-03
      -8.7207695256103709e-03 4.9046881543324370e-04
      -2.2043075266363749e-02 2.8315342901625391e-03
      1.6874154776281354e-02 3.6352685081269084e-02
      2.3300174255856856e-02 -2.0246431363022427e-02
      -3.3878637818158544e-02 -2.3759208465426278e-03
      2.4528642024753015e-02 1.2939916984709742e-02
      9.8260519035058905e-03 -2.3560641044114070e-02
      2.4348408293765715e-03 1.3713976310990577e-03
      2.0626802263544308e-02 -3.9233317619772258e-02
      1.6838200560065807e-02 1.2552027140293520e-02
      2.0991294511239250e-03 -1.5024411736343151e-02
      -1.1256400739100487e-02 5.2447470381865200e-03
      -1.3643034057485202e-02 -4.8716043465401572e-02
      -1.2973519575142449e-03 2.0012296696658792e-02
      1.4124754491647214e-02 -1.1214569979228735e-02
      -1.5898136280915756e-02 -7.9290057702090539e-03
      5.3700400084906400e-03 -2.0496233445373820e-02
      -1.3424124178896312e-02 -1.8043451829242923e-02
      2.8291627736330678e-03 1.4114931271957933e-02
      7.5696343901006701e-03 8.4030500156462625e-03
      1.0465130268079130e-02 -2.1496826626381492e-02
      4.8615217050653754e-02 -6.9965672475096605e-04
      1.8211055540592352e-02 2.1617743415066918e-03
      6.5823797252859114e-03 -3.4774362992980284e-02
      7.1611285919880776e-03 -6.9110703972628047e-04
      2.5834221752915512e-02 3.4894068845627464e-02
      2.1803483304471574e-03 6.0597671024740724e-03
      1.4057202301182030e-02 2.7522430901830562e-02
      2.5235002029752414e-03 2.8307612177540530e-02
      7.7165975631468750e-03 -1.9303527477366016e-02
      2.7951992329788736e-03 -2.1989156696323335e-02
      -3.3894286685694107e-03 -4.2912337385944140e-02
      2.3089937740984772e-03 1.1426266407182587e-02
      -2.3973778145488789e-02 4.0308846293670382e-02
      -6.2076195154075857e-03 7.5821903780161730e-03
      -1.3896108402003695e-02 5.6446753477232148e-03
      -2.0758258813241018e-02 -1.2277315813570824e-02
      4.3203257886420595e-03 8.7660046140885638e-03
      3.3853505745546123e-03 6.1589187398447638e-03
      -9.1125875104049250e-03 1.3277709295241540e-02
      1.3951624363692688e-02 8.5938650138717276e-03
      2.2061517972179173e-02 3.2615440228182163e-02
      -9.8014525310925697e-03 5.0090718629696102e-03
      3.1194930599061095e-02 -3.7168281473965326e-03
      3.2763702568466046e-03 4.6742930319921801e-03
      9.0147046655803913e-03 -6.2205939529277705e-03
      -1.3456298651418260e-02 -9.7159542492593481e-03
      -3.6678192498424265e-02 -1.6900100425253538e-02
      5.5669721376622686e-03 1.8968662266228384e-02
      -2.1183161245970847e-02 -1.7169802398273561e-02
      1.0458903129858033e-02 1.5422231204872466e-02
      -4.6036346871285248e-03 5.8791813872808461e-03
      2.1533804707104280e-03 7.6788033867967757e-03
      -3.5101000452949449e-02 4.8613966542772571e-02
      1.6425777230432452e-03 2.7967225324822036e-02
      1.0079863953159966e-02 2.4777078430604779e-02
      -1.6727306040823026e-02 2.4921644589803806e-02
      2.1724311483243969e-02 7.5277780745370325e-03
      -1.8193299639376742e-02 -1.6024599101228165e-02
      1.8855515772541916e-02 1.1980210652818330e-02
      8.7755639391327005e-03 1.0640678188334175e-02
      -1.5152240870096118e-02 -2.6810801229504005e-03
      -9.8514185913762837e-03 -4.8023976541935005e-03
      1.1673166148533925e-02 1.0198749204863222e-02
      -6.0306026933128415e-03 2.3274817537514555e-03
      -7.0060546995399523e-03 9.7145231258805378e-03
      -2.4806512776660100e-02 8.1079424824291348e-03
      8.1154140650580991e-03 1.7543600832048051e-02
      -7.3237206271584221e-03 -1.2893268796536876e-02
      7.0021325694127621e-03 9.0784999853018005e-03
      -3.3487163606604943e-04 -8.9251368196943386e-03
      4.9295691427517817e-03 5.7604972246006860e-03
      -9.1413773299988434e-03 -1.2640226878060387e-02
      1.2172394715523319e-02 -6.4207317447077189e-03
      -1.1316922365817699e-02 -9.3979495706003995e-03
      6.1177695294354316e-03 -6.9647868308684528e-03
      6.8795673181345574e-03 1.3090787831758046e-02
      7.1433332752931615e-03 -2.3178642031408708e-02
      1.8204343035296441e-02 -1.2621688555062027e-02
      3.6979215263608846e-02 8.2105061841691830e-04
      -7.1391534904779114e-03 -1.7545793625717059e-02
      -1.7532613038424207e-02 -1.1254295149078351e-02
      8.1687699220839936e-03 4.0764615755784009e-03
      2.3605038351353077e-02 2.2771852646229253e-02
      4.3148164866523070e-03 2.4873193125205348e-02
      -2.0122431317604474e-02 1.1382207878868941e-03
      -1.0638106327413577e-03 -2.1661611398889620e-02
      -3.3005613258455690e-02 -1.1557722657350167e-03
      -4.7132949713025269e-03 -8.4631355345693299e-03
      1.0896600108462558e-02 7.0649170297765167e-03
      9.2932808010231377e-03 6.2559762885576221e-03
      -2.4337223620730764e-02 -7.9619679067795286e-03
      -1.3860301812653063e-02 2.1026326651655877e-02
      -6.6581182410799635e-03 -1.6485094379104531e-02
      -6.7745416782910173e-03 -7.5720050533714381e-03
      3.1874519501842460e-03 -1.7498922834278782e-02
      2.1146953145244351e-02 1.4158890595253540e-02
      1.3989984421855796e-02 1.4030457707396355e-02
      1.4310486666242435e-02 -2.7668576330240169e-02
      2.1181859101010097e-02 1.8434826377838769e-02
      1.2423519194652115e-02 -2.0662298149417826e-03
      -1.0263978857185661e-02 -1.6780996053375137e-02
      -1.5296095930476709e-02 -1.0283836659023276e-02
      -2.3100917095961643e-02 1.6948961364335560e-02
      1.2340552517027266e-02 -2.0602265195026431e-02
      -3.1166506131759947e-04 -3.7214236559019016e-02
      5.4843922501568107e-04 2.0956023456849510e-02
      4.0140418205791298e-02 2.3030971829506299e-03
      1.7520073427797347e-02 -1.5738879499284941e-02
      -8.9641439451333780e-04 -1.8362570470766240e-02
      3.1437513776713119e-03 -1.1796250317830569e-02
      -2.7585374294891787e-02 -3.3741759671569983e-02
      1.7005591251849110e-03 -1.0011864714576033e-02
      -1.0022257096842126e-02 1.1569339137029887e-02
      1.9104587943559501e-02 -1.1971179863552065e-02
      -2.8326458200995726e-02 -1.3897784992217740e-02
      1.0923993963904807e-02 1.6049859589985244e-02
      -2.1627009146482313e-03 -8.2490209879048770e-03
      -9.0957095465396005e-03 3.1254377078457191e-03
      -4.1578882017437304e-03 1.2788977101098407e-03
      4.7339492351225624e-03 1.8746209459739187e-02
      1.5375941359848414e-02 9.8097181658646747e-03
      -3.6787376105105528e-03 -1.5062577195553706e-02
      1.7273757293919115e-02 1.9985208133003099e-02
      1.3097860954389043e-02 -3.3781105792146434e-03
      3.3852110699888728e-02 1.4400539200500028e-02
      6.7353165429760590e-03 1.7444203812517246e-02
      2.5522457880892479e-02 1.4692945826098369e-02
      2.8444333853133379e-02 1.9381028266071874e-02
      -4.4605125250826291e-03 1.3829687899606324e-02
      -2.1081840511611636e-02 -3.9063882301096316e-02
      1.2448261396677133e-02 3.2538207224997030e-03
      2.3504176893920703e-02 -1.6137491389048911e-02
      -1.1264408654018574e-02 1.3798595229046551e-03
      1.3053588291254841e-02 -1.3880038323954642e-02
      1.7497102116238521e-03 -1.4497284418973922e-02
      -4.3582905988391899e-03 8.6425240976244974e-03
      1.3407650118677925e-02 5.8413418919975161e-04
      -6.1815831148543813e-03 1.5803827733391937e-02
      -2.3031049899628855e-02 1.0750197662456102e-02
      -1.2580212149308819e-02 -1.7809169796094503e-02
      -1.7942898407568219e-03 1.3967529304425828e-02
      8.5075865320641628e-03 -1.2808491490110695e-02
      2.5850400024126936e-02 4.4633007753240340e-03
      -1.0690562810349928e-02 1.0959563352315339e-02
      -1.4366444025689233e-02 -2.5254015289627126e-02
      -1.4060446896352781e-03 -2.1151472648539345e-02
      1.5946293998270529e-02 1.1526383829231043e-02
      -4.0518068056227454e-03 -9.0553773576610829e-03
      -1.3130618439971034e-02 -8.3472403212880263e-03
      1.8847177293780801e-02 2.2554187692741304e-03
      5.6063693962791318e-03 3.6846599608048848e-02
      -1.0676836718216901e-02 -3.5742500315991070e-02
      7.5637079353087933e-03 -8.7177909483713272e-03
      1.6471989306474203e-02 -1.5571153384706328e-02
      -1.8476671594888434e-02 3.9163338903718085e-03
      -9.1924569146006560e-04 8.1952806740062598e-03
      1.3061660218514352e-02 -2.5773084504528156e-03
      1.7472506722745008e-02 9.5740485864145939e-03
      -1.3023732211830426e-02 -1.5368355149142235e-02
      4.4941763745070494e-03 -1.3229998476959187e-02
      -1.7958257920549694e-02 2.7133324837792700e-02
      2.5422199274377482e-02 4.0603765508930587e-03
      9.9935917237842769e-03 1.0840564763704451e-02
      -1.5316172733374257e-02 1.7757438540930644e-02
      -1.8630805704253753e-02 -1.6131177461145587e-02
      -7.4938328670732567e-03 3.0038852924497789e-02
      -2.3788860095915132e-02 2.3347508503902898e-02
      3.6974996725572432e-02 1.1812741948094830e-02
      2.7027150261831252e-03 2.1651977877867119e-02
      -1.1007614157548206e-02 -1.0998486310240769e-02
      7.4284277532066911e-03 -7.9241521011824689e-03
      -2.6921092613134651e-02 -5.3436353817364448e-03
      -8.6913407948882252e-03 -1.0425620412138729e-02
      2.3189888894859139e-03 2.0136202548934733e-02
      -8.8052042551753171e-03 2.1285418431758504e-02
      -2.5913398066366947e-03 -1.0367580301343876e-02
      -4.0058555204639835e-04 5.2884611786594418e-03
      7.5643051237807412e-03 3.2446629974950329e-03
      -2.7455813866063276e-02 -1.4091472650453275e-02
      -1.0039730536377106e-02 1.8796820619396633e-04
      8.4472797032995716e-03 -5.1024529795522071e-04
      -3.3440902163719673e-03 3.8521914065005624e-03
      -2.8142294242143231e-03 -3.0667519810534647e-02
      -3.0585406442716189e-02 3.1322381632056646e-02
      8.7585705437494710e-03 4.6703393259461996e-04
      -2.6174114634293175e-02 -1.4980036307313779e-02
      3.7137514027163698e-02 -7.4087074558002869e-03
      -6.2164444272092854e-02 1.1602868341428570e-02
      2.0097502300671258e-04 -1.8092123919217953e-02
      3.8014673814754560e-03 3.7180459752506216e-02
      2.1481758131633295e-02 -2.4490691078528391e-02
      -3.9854220590758098e-02 1.4426471860263372e-02
      -1.8053283545456735e-02 3.6367356465279659e-02
      -1.8610062880502414e-02 6.9649387593753789e-03
      3.5315211456999014e-02 2.8395993655801918e-02
      1.7279399999786969e-02 2.3820082121568806e-02
      3.2555749646783212e-02 7.7661903711902028e-03
      -1.0278224090576014e-02 -1.4853669833548595e-02
      -2.1978492079198161e-02 -1.6033881054571507e-02
      -1.4748584063012205e-02 2.8361567236000317e-02
      7.6771342777423963e-03 2.6109305018336610e-03
      1.4554097886463016e-02 -5.1610215413660111e-03
      -1.6267073214035652e-03 2.1498443916282341e-02
      9.9075201510039710e-03 1.6152626791741072e-02
      -6.1326020664929752e-02 3.0842324669437766e-02
      -1.2484316369343646e-02 -7.8513851395295171e-03
      2.9462293858494239e-03 4.8576256734594757e-03
      -1.6258448243485994e-02 5.7131575305340880e-03
      1.7034349404619734e-02 -6.2956279108432617e-03
      3.9348582364384099e-03 -3.1586797849197591e-03
      1.4697188833999566e-02 -1.4058436221265366e-02
      2.4878889474951073e-02 -1.8465585672317066e-02
      -2.5125066787272540e-02 -2.7650529748248311e-02
      1.8012321409824884e-02 -7.5428572613643182e-03
      -1.5495521714588550e-02 -8.5724165262802098e-03
      3.0574205092285110e-02 2.5204161958881123e-02
      4.6524502296179000e-03 8.7140747996298593e-03
      2.2225471957262970e-02 -1.6603029182849581e-02
      -2.3134043198609813e-02 -1.1706932556987569e-02
      2.0872170364771500e-02 -3.1614405600673225e-02
      4.1184787377620859e-02 -2.2260644794722631e-02
      -5.5079767012084301e-02 2.0195592743408687e-02
      4.8492862156192973e-02 9.6516937281372270e-03
      3.6039042433131122e-02 8.6074353457309127e-03
      2.5390616927812210e-02 1.4031222657978950e-02
      -1.9535314583744964e-02 -3.6370346574917230e-02
      6.5536030823395300e-03 7.0759677307728275e-03
      -9.6277243886022275e-03 2.3633120297220936e-02
      -3.2984225723468839e-02 2.2396854406918652e-02
      2.5182935732539182e-02 -1.9468898877179786e-02
      1.4274705049774848e-02 2.6186508968598535e-02
      -2.3469744204657989e-02 3.1823482660435568e-02
      6.1593291031418664e-03 -2.1976232976004911e-02
      -4.4589002595990274e-02 6.6606152490904756e-03
      -2.5085328860103354e-02 -2.1431391088202224e-03
      -2.4193982523584654e-02 3.5723426392507619e-02
      -3.8251223255884564e-02 -1.6210199285167557e-03
      -2.4559052192623448e-03 -8.8427823412214005e-03
      -3.2957976907870196e-02 1.6595130914064338e-02
      1.1004193211240850e-02 -2.9615252919533888e-02
      -3.1164747131569543e-02 6.0676660057799609e-03
      1.8870201731267987e-02 1.4015402826870397e-02
      -2.0008852040947513e-02 -4.9164442472719054e-02
      6.2548397687046493e-03 3.2618429657761830e-03
      3.8920962712923737e-02 3.2586573228159735e-02
      -5.0661835599866460e-04 -3.2668969006348504e-02
      -3.0262398021753806e-02 2.4386209273932615e-02
      -2.9589589861464594e-02 4.0971689365667821e-02
      -7.5636296417367719e-03 -9.7461526528729351e-04
      -2.0900974186725884e-02 -1.4231188817200102e-02
      2.2014851538294918e-02 2.2052997072693620e-02
      -2.2760827102422814e-02 2.2187638533208816e-02
      1.8235699780734780e-02 -5.3832767420774310e-03
      -1.3547550318534215e-02 4.4467547359034951e-02
      5.7578340480902303e-02 -6.1427913672212793e-03
      -9.0430744563118667e-03 1.7435363686897114e-02
      -2.0386039531153616e-02 3.5544934453766580e-02
      -2.8000342455279586e-02 1.8486392124391484e-02
      2.7765271203344540e-02 8.7101918036645264e-03
      3.9497489276116862e-02 2.2552758718550545e-02
      4.5451510471273181e-02 2.8680349109265920e-02
      -3.8967803941088977e-03 -2.7588815806588615e-02
      -1.7855176642746499e-02 -6.6941422672759385e-03
      1.4598068434532955e-02 4.0715603052248743e-02
      1.3288682216234060e-03 8.4619001894568682e-03
      -1.8814635907748814e-03 2.0875412284477046e-02
      1.9716296400377448e-02 1.1017376063460944e-02
      3.2139362922064513e-02 2.2543469925550265e-02
      -1.1356006482280389e-02 2.2176262271399683e-02
      -8.8100935436781543e-03 -3.0616799321171562e-02
      -2.6209006540220737e-03 2.7873155251178710e-02
      -2.7645461949835221e-02 -3.9148611220577952e-02
      -3.1812328563647088e-02 -6.2206420847677720e-03
      3.0354873981268938e-03 2.1848179206172505e-02
      -5.0792031370581626e-03 1.3942540938226253e-02
      -1.5571805783344505e-02 6.1550098640870800e-03
      -3.6598270765634829e-02 -1.9739318874289771e-02
      3.2109117495276715e-02 -7.0926240260232809e-02
      -1.9044703026025254e-02 -1.1655470841087791e-02
      1.0026770349318637e-02 -1.1222569189682287e-02
      -3.0288597262308120e-02 -5.4766178193273460e-03
      9.9156865836748809e-03 -1.9854615713908071e-02
      1.6681478711133863e-02 -1.2671738450610370e-02
      2.6553079415608343e-02 -1.8242480939932686e-02
      3.9238571828188330e-02 -5.2428104487003024e-02
      -2.7513517498282267e-02 3.9876379070408093e-02
      3.1406442597592683e-02 6.5398404797773558e-03
      3.5312579560001063e-02 -7.9379580922123404e-03
      2.5742646470756119e-02 1.7046339610338739e-02
      2.7453686283937912e-03 -4.7713151225421642e-02
      7.6359069188868776e-03 3.1795770799882522e-02
      7.1110372215626404e-03 1.9311614500517285e-02
      -3.4557688226748116e-02 1.8414155646945644e-02
      1.1459735838018341e-02 -4.4019297884902702e-03
      4.2398179521346965e-03 2.6812159514764230e-02
      -4.6367054408773386e-03 3.6392535898282889e-02
      -1.6760803822784182e-02 -6.9274244387710331e-03
      -1.1718711582427115e-02 3.3425790008462186e-02
      2.7882209560832108e-02 -1.1619649408181923e-02
      -1.5767089853300203e-02 3.4284596271182154e-02
      -2.4243342761564160e-02 3.1733559141612247e-03
      2.1061396080481998e-03 1.7677148325073563e-03
      -2.1550012880646962e-02 -4.8196811789956197e-02
      -1.3421772783864205e-02 -2.1520339645375097e-02
      -1.2175192720762378e-02 1.9744872629295120e-02
      3.9504211811022767e-02 -5.9305491672793555e-03
      -2.7823833179353292e-02 -1.9502063335122409e-02
      -2.6708758466045040e-03 8.6575754031581725e-03
      3.6473533848612037e-02 -1.6931482699120365e-03
      -5.8381418026370183e-03 -2.8090936280267768e-02
      1.5390452113796544e-02 -1.0931716913029072e-02
      -5.9153802541224995e-03 -3.2976768332197422e-04
      1.1726829286019320e-02 3.9447744793684467e-03
      2.5395719790730535e-03 -9.0509486240234940e-03
      -9.3224229997817989e-04 -6.6911305778943723e-04
      -4.9125325364516841e-03 -1.3377413697455732e-02
      1.1974792550420656e-03 2.5286287345028830e-04
      4.8980057808095069e-03 1.8920920467593687e-02
      1.7697223383161985e-03 -1.2576835526423262e-02
      -1.3172910116094448e-02 2.3204386038703884e-02
      -1.3163266552554278e-02 -1.2341036976027035e-02
      -8.3981930680411977e-03 -9.8586922045806290e-03
      -7.8572772286787679e-03 7.9216527613941139e-03
      -5.8683751573114788e-04 -8.6443990088159988e-03
      2.5253822322370729e-02 4.9125220811239555e-03
      7.9776645633401269e-03 1.7382938691977491e-04
      -1.7435981850843833e-02 -1.4282402680388641e-02
      4.9140583744448137e-04 -1.4737686374367275e-02
      -4.6552817056417558e-03 1.8611143614325320e-02
      7.8984022078336120e-03 8.5964203282808214e-03
      1.5589166239027482e-02 -3.3556830847363750e-03
      -1.0698414412035437e-02 1.2098074775336145e-02
      1.3403703004962488e-02 -9.4036403058749118e-03
      3.7665469297842756e-03 4.5829203333832055e-03
      2.1045475128822128e-02 -1.5917269596348625e-02
      4.9973882551547005e-03 -9.9938856056025465e-03
      1.0662345857393632e-02 -1.2512547763912221e-02
      -1.1561855455307741e-02 -1.3021671396244130e-02
      8.0908379320371298e-03 1.3394874264514469e-02
      -1.7101125266644115e-03 1.9963032566642815e-03
      -2.7872753992179097e-03 -3.0487122620670810e-03
      2.0378460789976519e-02 -1.5941033749412983e-02
      1.0902133985574616e-02 9.9035490553768500e-03
      -6.9077660069310574e-03 8.8931876968899575e-03
      -8.6703548740252444e-03 -4.2807013259200154e-03
      1.0147780633587114e-02 3.1286160811438003e-03
      1.1721002417726771e-02 -9.2444393343789205e-03
      1.9808155715663051e-02 9.4527466183032070e-03
      2.5411090782050970e-02 -2.4744939476739895e-02
      1.8945695601254450e-03 -6.3485867001633039e-03
      7.7992542034704031e-03 8.9317248666568230e-03
      1.6995216181122930e-02 1.9911929208342734e-02
      -8.1469983802546306e-03 -1.0144049743521425e-02
      -2.0029014442080915e-02 1.8680626972742833e-02
      -5.6253241631006980e-03 4.9420919698214558e-03
      -1.6030180746389438e-02 1.0453090339558109e-02
      -1.9782260001043533e-04 4.6363988784844387e-03
      1.9306101950531927e-02 1.3477328026578856e-04
      2.5152768083942841e-03 -1.0317631871087422e-02
      1.5962540977477963e-03 1.6656552508115655e-02
      1.6115767257267075e-02 -4.4169857738516121e-03
      -1.3037642156471964e-02 1.4119267629371232e-02
      -7.8343258028434441e-03 1.0418977270682221e-02
      -1.8439521584659987e-02 1.1224374072965065e-02
      1.0979400897609260e-02 4.5707216378421496e-03
      -1.2374825646802003e-02 -1.8512939943049275e-04
      -9.8198373878127347e-03 -8.8448699880028427e-03
      6.8333825355854040e-03 -7.1414280220173081e-03
      1.5274723183386105e-02 -7.9546882862108603e-03
      1.0016609986901877e-02 1.8547425242751412e-02
      4.5923245460595761e-03 -2.8506844070041226e-02
      -1.0410463606668436e-02 -1.5269116577296088e-03
      7.8243769133234178e-03 -4.1327722625639583e-05
      -1.3242261720184381e-02 -2.0340965658646780e-03
      -1.3160770669496774e-02 -1.1994158710448620e-02
      3.0852542748958647e-03 3.5204568377186262e-03
      -2.9938068744240563e-02 1.4292726325626597e-03
      6.3267601437596369e-03 -2.2810202772309610e-02
      -1.6341894267480846e-02 -7.4689880303727679e-03
      5.6582993574926825e-03 5.5132083280858149e-03
      -6.4776057464445355e-03 6.6276692885575599e-03
      2.7208960323125080e-02 1.6129380063669166e-02
      4.3487878683199921e-03 -1.3886329465291107e-02
      -1.0328395714196602e-02 -1.5258175168147250e-02
      2.2108449177214631e-02 1.6027282238031019e-02
      6.7571261309066835e-03 -7.8245565285917449e-03
      1.8119624864647986e-02 -1.7399836611613269e-02
      -9.3619453230363928e-03 -3.8024509911076662e-03
      -2.5416831427860623e-02 6.9506187806325859e-03
      -5.2426679620085166e-03 7.2905479821199653e-05
      -1.5278096896220865e-02 -2.9515337120037104e-03
      1.3915170169101904e-02 -4.8661864078282466e-03
      -3.5000708669674237e-03 -9.3076447165387870e-03
      -1.4683279746287033e-02 -8.6301586674195890e-03
      4.8148334879251249e-03 -2.6540887538199507e-03
      -9.7516936131627849e-03 -2.0875610004099990e-02
      -2.5591054583326570e-02 1.3368937523423724e-02
      -1.6145943384085627e-02 -1.2910925663635730e-03
      -2.5490302145550404e-02 -1.1519271075931604e-02
      -8.8841558016117012e-04 -1.3900799186322109e-02
      2.4945259207962284e-03 1.6589436713964279e-02
      -6.3920034536807382e-03 -1.3180444279308221e-03
      -9.7198738954271478e-03 -2.8879092366256416e-02
      4.4070060274779138e-03 -7.7517107693064009e-03
      1.9384295914964437e-02 1.0281306863892458e-02
      -3.5767667538672311e-03 3.0410089505766798e-04
      -6.3055040833318423e-03 -3.9609577596300613e-03
      -6.2797061667255009e-03 2.7210706416994277e-02
      -1.6895273324339325e-02 1.4444935175017189e-02
      -6.2354634684204987e-03 -8.3488010653146993e-03
      -1.7310401391531910e-03 -6.2363424162139008e-04
      1.3764141246342648e-03 -1.6883883979280284e-02
      1.0142865079798441e-02 8.0394436842667165e-03
      -6.6109236781548069e-03 1.6226496572143499e-02
      2.8336329220574599e-03 -8.8988383956565206e-03
      6.1824381397094473e-03 -2.6921693857748563e-02
      -1.8558548231291747e-03 1.5426247836653900e-02
      1.1788306048128307e-02 5.4483685124125823e-03
      -3.3505868682306192e-02 -1.1187082645227405e-02
      -2.9620793978005246e-02 -2.1265511710869260e-02
      -1.3327618669350229e-02 4.7054022210927466e-03
      2.0932861986515061e-02 -2.5882555170079909e-03
      -7.3988301203276379e-03 1.4808208159335092e-02
      -2.1860243891668818e-03 -7.7526183119435755e-05
      5.7009849892911959e-03 1.7420879014983126e-02
      6.8023817279324788e-03 1.4088880291717723e-03
      4.7956870835304194e-03 -3.8562737154862630e-03
      -2.0566982684423031e-03 -1.1632054233286214e-02
      1.2070655219660460e-02 -1.4891562903072231e-03
      -1.3524846931319740e-02 6.1010038433475773e-03
      -1.6967759157384039e-03 6.5233978540235197e-03
      5.8115398414645709e-03 3.0770060400086278e-04
      -7.1802673116382076e-04 -4.3511390326552392e-03
      -6.2676931195259980e-03 1.2851226786212639e-02
      3.9158349507559939e-03 2.5136689385325154e-02
      -7.6551439305709255e-03 1.6212926859781060e-03
      -8.3656600366448610e-04 -1.0836290486627466e-02
      2.5976790029165496e-02 -8.6246760677063054e-03
      2.9793434929355224e-03 2.3639308934039070e-02
      4.1085211053342860e-03 -1.3571101382672266e-02
      -4.4721892736257693e-03 7.1018441474235677e-03
      3.9575445623687124e-02 3.1684629512214298e-02
      -3.9632168984764021e-03 -4.7978662169524185e-02
      4.4127812537471181e-03 2.2920321819852271e-03
      -3.1063911846700563e-02 -7.4359859397003125e-02
      5.4676627759562169e-02 -7.7250730600908262e-03
      -4.2799366934808472e-02 1.4952418055011489e-02
      -6.3736902155325667e-02 1.0661901896323099e-02
      -3.3013453020111147e-02 -2.2904677443237091e-02
      9.8521385771295905e-03 2.5927483123288821e-02
      -3.3023241809933684e-02 3.9512672539377090e-02
      -6.2248086624885936e-02 -5.5355879084043802e-03
      -3.8751855695927762e-02 -1.4929768872867519e-02
      -4.8367981010926403e-02 7.5908387149035044e-03
      4.3675182040152647e-03 -5.7401800624915129e-02
      1.3169525246628571e-02 -6.9905871508920026e-02
      1.5069288302897900e-02 -1.5647109894755179e-02
      4.2574334925972436e-02 -4.2098161349882639e-02
      -4.1798092143338815e-02 -2.9373417871351643e-02
      -5.7248006029813704e-02 1.3284035713101177e-02
      -4.6426564588640763e-03 -1.2453993811688675e-02
      6.0955784969096358e-03 6.0426191814523772e-02
      -2.4786066016409529e-02 -4.7337047949312046e-02
      -7.1462247244895444e-03 4.3190899904183823e-02
      4.6548643644083836e-02 2.9369717451333599e-02
      -2.7646891641952748e-02 -2.2023135862458170e-02
      1.6453696464121811e-02 -5.8781040425469569e-02
      1.0049668158761374e-01 -6.1943303070347337e-02
      3.5691360168369296e-02 2.7280820570849199e-03
      -4.3529290887516524e-02 9.2416377270158445e-02
      -2.3857281481894043e-02 -1.5232705754294975e-02
      -6.6162032105283076e-03 3.6071310798822573e-02
      8.5667662744612627e-02 2.2631099354925677e-02
      5.1785582626965310e-02 1.4581467485829440e-02
      -1.3893520654766066e-02 6.0600131704834942e-02
      5.0708823420586191e-02 -3.5111078298130628e-02
      4.2036283798364715e-02 7.2045952528912369e-02
      2.3750078751061280e-02 -5.0339556901577327e-02
      -3.7779318447506829e-02 1.4944902623261156e-02
      -5.1728213261043675e-02 1.5046715963531222e-02
      -4.7879837958860749e-03 -1.5369864971263133e-02
      -5.0039986424025150e-02 5.0127543569608995e-02
      1.9941134462878769e-02 -2.9711410223230282e-02
      7.9004345265019163e-03 -1.5932385859618640e-02
      5.2255710065711745e-02 -1.6820298624418754e-02
      1.6015487635220569e-02 1.3032741495015618e-02
      3.0928862299484258e-02 -4.8473260885781799e-02
      -2.5236336281914792e-02 -8.9446740164712477e-03
      4.6902125664546650e-02 4.8882951424489354e-03
      -5.5686222172084146e-02 -7.0108986563799491e-02
      -6.9147074679399595e-02 -3.8904537262848195e-03
      2.6236530291971018e-02 -3.9295350369649039e-03
      -1.9547058777901541e-02 -1.2464060962037685e-02
      -9.8367527683552169e-03 -3.7536223490763090e-02
      8.4810951636381960e-03 8.1184979837896923e-02
      4.6137219523553277e-02 2.3654604662442919e-02
      -3.0776500815061905e-02 -2.2488867002902410e-02
      -5.7883072046582863e-03 1.5208101466173159e-02
      2.0712905852551408e-02 -6.3244947636508153e-03
      5.9951391231356316e-02 1.3247052215752916e-02
      -5.2119998068871173e-02 9.5697971591167427e-02
      -1.0928683846203456e-02 4.9131658927242992e-02
      -4.5280342498224310e-02 -9.4443253047668822e-04
      -1.1301691192736201e-02 2.3854791894795110e-02
      2.9497221028818963e-03 5.3383569180736057e-03
      -1.1937077308099866e-02 -1.1930374438320445e-02
      9.4620987034395917e-03 3.2715521097996816e-02
      3.1559012376572035e-02 -7.9982223792722240e-03
      3.6752354471238841e-03 6.2412653398157200e-03
      -8.0263047515395508e-03 -2.8863059811095753e-02
      -1.4599953813706617e-02 1.4869779020100620e-02
      1.1366008438729525e-02 1.4949034644460955e-02
      -4.0517402034242842e-03 -1.3689718565094456e-02
      -1.8715908545604194e-03 -1.1114798495122561e-02
      -2.5059478267508047e-02 -2.2405142761000245e-02
      -2.4698253357321565e-02 3.1698098576406940e-04
      -1.8708769973506602e-02 2.0626142666510129e-04
      5.9346609157373701e-03 -1.6100211192636830e-03
      -1.4130105872984610e-02 9.0587676041194668e-03
      2.6962895376318910e-03 -2.2672931737218464e-02
      -7.5454004838024042e-03 1.7704845939841493e-02
      2.4117609476350211e-02 3.8405585648567668e-03
      1.4059845554078699e-02 -2.2045180822179693e-03
      2.4529483732204172e-03 1.2430137757949392e-02
      3.4110876268382877e-02 -2.4746056826478031e-02
      -2.6041368366221621e-03 8.4478043892114909e-03
      -6.5621046367815312e-03 -3.1467875999657807e-02
      1.2501372464384562e-02 2.9088813785626593e-02
      4.0034101333560508e-03 2.9536298405164137e-02
      3.6371206787642442e-03 1.1494612945018421e-02
      1.4614014089112335e-02 3.7844859622493447e-02
      6.1243065715407517e-03 2.6224721737025812e-03
      -4.2153200622365196e-03 1.3374161938129996e-02
